%YAML:1.0
---
opencv_ml_svm:
   format: 3
   svmType: C_SVC
   kernel:
      type: RBF
      gamma: 5.0624999999999998e-01
   C: 1.2500000000000000e+01
   term_criteria: { epsilon:1.1920928955078125e-07, iterations:1000 }
   var_count: 256
   class_count: 10
   class_labels: !!opencv-matrix
      rows: 10
      cols: 1
      dt: i
      data: [ 0, 1, 2, 3, 4, 5, 6, 7, 8, 9 ]
   sv_total: 116
   support_vectors:
      - [ 3.01750153e-02, 3.41983512e-03, 1.55401332e-02, 1.43331317e-02,
          3.67129361e-03, 2.51458463e-04, 1.30758397e-02, 5.24542332e-02,
          3.37457247e-02, 2.26312620e-03, 2.61516799e-03, 3.21866828e-03,
          1.99658014e-02, 7.04083708e-04, 1.00583382e-01, 3.96499693e-01,
          4.32508532e-03, 7.04083708e-04, 1.20700058e-03, 9.05250432e-04,
          3.01750144e-04, 1.00583384e-04, 3.01750144e-04, 9.55542142e-04,
          2.44417619e-02, 1.10641727e-03, 1.86079263e-03, 2.56487634e-03,
          5.26554026e-02, 9.05250432e-04, 2.23144233e-01, 1.63699463e-01,
          1.66465491e-02, 7.04083708e-04, 7.89579563e-03, 2.01166770e-03,
          1.35787565e-03, 4.52625216e-04, 2.61516799e-03, 3.06779309e-03,
          2.76604295e-03, 5.02916919e-05, 3.01750144e-04, 1.00583384e-04,
          1.55904249e-03, 1.50875072e-04, 4.32508532e-03, 3.67129361e-03,
          1.58921741e-02, 9.05250432e-04, 2.41400115e-03, 8.04667070e-04,
          8.04667070e-04, 0., 1.25729234e-03, 1.05612550e-03,
          9.88231748e-02, 4.37537720e-03, 6.18587807e-03, 3.11808498e-03,
          2.28626028e-01, 2.56487634e-03, 2.80175030e-01, 9.96781364e-02,
          4.27479390e-03, 7.04083708e-04, 6.03500288e-04, 4.02333535e-04,
          3.52041854e-04, 1.00583384e-04, 1.25729234e-03, 1.00583385e-03,
          1.76020921e-03, 2.01166768e-04, 2.51458463e-04, 1.50875072e-04,
          1.25729234e-03, 1.00583384e-04, 4.17421060e-03, 3.41983512e-03,
          5.02916926e-04, 0., 2.01166768e-04, 5.02916919e-05,
          1.50875072e-04, 5.02916919e-05, 1.00583384e-04, 4.52625216e-04,
          7.54375360e-04, 1.50875072e-04, 1.00583384e-04, 5.02916919e-05,
          1.10641727e-03, 1.00583384e-04, 2.16254266e-03, 3.16837663e-03,
          1.41319651e-02, 5.53208636e-04, 2.21283454e-03, 9.05250432e-04,
          7.54375360e-04, 0., 1.30758400e-03, 1.30758400e-03,
          2.86662648e-03, 5.02916919e-05, 4.02333535e-04, 1.00583384e-04,
          2.91691814e-03, 0., 3.06779309e-03, 2.91691814e-03,
          5.49185276e-02, 1.40816742e-03, 3.36954347e-03, 8.54958780e-04,
          1.00583385e-03, 2.01166768e-04, 1.35787565e-03, 4.07362683e-03,
          3.32126319e-01, 3.82216857e-03, 3.06779309e-03, 2.16254266e-03,
          1.44789785e-01, 2.81633483e-03, 1.04506135e-01, 7.47837424e-02,
          3.00744325e-02, 1.75518002e-02, 2.36370950e-03, 8.35847929e-02,
          1.91108428e-03, 6.53791998e-04, 2.36370950e-03, 2.82840461e-01,
          1.78032592e-02, 3.67129361e-03, 7.04083708e-04, 6.94025354e-03,
          3.57071008e-03, 1.76020921e-03, 7.59404525e-03, 3.43291074e-01,
          1.40816742e-03, 1.81050086e-03, 2.51458463e-04, 3.77187692e-03,
          3.01750144e-04, 1.00583384e-04, 1.00583384e-04, 3.52041842e-03,
          3.92275210e-03, 2.06195936e-03, 1.50875072e-04, 3.41983512e-03,
          2.61516799e-03, 1.35787565e-03, 3.87246022e-03, 9.05250460e-02,
          2.11225101e-03, 2.21283454e-03, 3.52041854e-04, 4.67712712e-03,
          1.50875072e-04, 5.02916919e-05, 1.50875072e-04, 2.56487634e-03,
          1.15670892e-03, 1.50875072e-04, 2.51458463e-04, 4.52625216e-04,
          3.01750144e-04, 2.51458463e-04, 7.04083708e-04, 9.85717122e-03,
          3.52041842e-03, 2.26312620e-03, 2.01166768e-04, 3.67129361e-03,
          5.02916919e-05, 1.50875072e-04, 1.00583384e-04, 1.81050086e-03,
          8.70046299e-03, 3.41983512e-03, 6.53791998e-04, 6.63850317e-03,
          5.12975268e-03, 2.41400115e-03, 1.10641718e-02, 9.93763804e-02,
          1.84570514e-02, 4.19432707e-02, 1.70991756e-03, 1.85324878e-01,
          1.05612550e-03, 1.40816742e-03, 2.06195936e-03, 1.23516396e-01,
          3.62100173e-03, 1.91108428e-03, 4.52625216e-04, 4.37537720e-03,
          1.35787565e-03, 1.05612550e-03, 4.32508532e-03, 8.83122087e-02,
          9.05250432e-04, 9.05250432e-04, 0., 2.56487634e-03,
          1.00583384e-04, 1.50875072e-04, 0., 3.06779309e-03,
          1.70991756e-03, 1.15670892e-03, 4.02333535e-04, 2.06195936e-03,
          1.00583385e-03, 1.65962579e-03, 2.21283454e-03, 5.03922738e-02,
          8.87145475e-02, 1.83363512e-01, 4.67712712e-03, 2.36270368e-01,
          3.67129361e-03, 2.51458469e-03, 4.52625239e-03, 9.17320475e-02,
          6.53791986e-03, 3.57071008e-03, 5.53208636e-04, 1.04103805e-02,
          3.82216857e-03, 2.46429280e-03, 6.43733656e-03, 9.93260890e-02,
          4.02735859e-01, 1.41420230e-01, 3.36954347e-03, 9.56045091e-02,
          3.57071008e-03, 3.16837663e-03, 3.01750144e-03, 7.29732439e-02,
          4.07111257e-01, 9.89237577e-02, 1.23717561e-02, 1.07423052e-01,
          1.01538926e-01, 5.53711541e-02, 1.11899011e-01, 1. ]
      - [ 3.00486498e-02, 2.81407987e-03, 1.65506061e-02, 1.24964230e-02,
          2.62329495e-03, 3.81570164e-04, 1.34503478e-02, 4.95564267e-02,
          3.52952406e-02, 1.62167323e-03, 3.05256131e-03, 3.33873904e-03,
          1.99370403e-02, 6.67747809e-04, 8.89535472e-02, 3.85195076e-01,
          3.62491654e-03, 4.29266423e-04, 9.53925424e-04, 6.67747809e-04,
          2.38481356e-04, 4.76962705e-05, 5.24659001e-04, 9.53925424e-04,
          2.17971951e-02, 1.33549562e-03, 2.19402835e-03, 3.33873904e-03,
          4.86501977e-02, 7.15444039e-04, 2.23218545e-01, 1.39654681e-01,
          1.72183532e-02, 1.28779933e-03, 8.10836628e-03, 1.86015456e-03,
          9.53925424e-04, 2.38481356e-04, 2.05093971e-03, 2.76638358e-03,
          2.71868752e-03, 1.43088808e-04, 5.24659001e-04, 2.86177616e-04,
          2.38481350e-03, 4.76962705e-05, 5.53276716e-03, 2.76638358e-03,
          1.50720216e-02, 1.09701417e-03, 2.81407987e-03, 1.81245827e-03,
          6.20051520e-04, 1.43088808e-04, 1.28779933e-03, 1.19240675e-03,
          9.06706080e-02, 3.62491654e-03, 5.62815974e-03, 3.24334647e-03,
          2.40246117e-01, 2.90947245e-03, 2.95621485e-01, 9.87312794e-02,
          3.29104275e-03, 4.76962712e-04, 1.38319179e-03, 6.20051520e-04,
          5.24659001e-04, 4.76962705e-05, 1.09701417e-03, 9.06229136e-04,
          1.57397694e-03, 2.38481356e-04, 2.86177616e-04, 0.,
          1.43088808e-03, 4.76962705e-05, 3.91109427e-03, 3.81570170e-03,
          6.20051520e-04, 4.76962705e-05, 2.38481356e-04, 0., 0., 0.,
          9.53925410e-05, 1.43088808e-04, 5.72355231e-04, 1.90785082e-04,
          1.43088808e-04, 9.53925410e-05, 9.06229136e-04, 0.,
          2.38481350e-03, 2.19402835e-03, 1.50720216e-02, 5.24659001e-04,
          2.24172464e-03, 1.24010304e-03, 9.06229136e-04, 4.76962705e-05,
          1.57397694e-03, 1.24010304e-03, 2.52790237e-03, 4.76962705e-05,
          3.33873904e-04, 1.43088808e-04, 2.52790237e-03, 4.76962705e-05,
          4.00648685e-03, 3.10025760e-03, 5.11304028e-02, 1.09701417e-03,
          2.57559866e-03, 1.47858437e-03, 1.28779933e-03, 1.90785082e-04,
          1.09701417e-03, 2.95716873e-03, 3.08165610e-01, 2.90947245e-03,
          3.38643510e-03, 2.90947245e-03, 1.34121910e-01, 2.33711721e-03,
          9.73003954e-02, 7.39292204e-02, 3.23380716e-02, 2.06047893e-02,
          2.28942093e-03, 7.70294741e-02, 1.24010304e-03, 7.63140328e-04,
          2.43250979e-03, 2.76733756e-01, 1.93646867e-02, 4.19727201e-03,
          1.19240675e-03, 6.20051520e-03, 3.67261283e-03, 1.52628066e-03,
          6.48669293e-03, 3.47133458e-01, 1.86015456e-03, 1.19240675e-03,
          2.86177616e-04, 3.81570170e-03, 1.43088808e-04, 4.76962705e-05,
          4.76962705e-05, 3.52952396e-03, 4.91271587e-03, 1.62167323e-03,
          1.43088808e-04, 3.62491654e-03, 1.90785085e-03, 9.06229136e-04,
          3.67261283e-03, 8.54717195e-02, 3.19565018e-03, 1.81245827e-03,
          4.76962712e-04, 4.57884185e-03, 1.90785082e-04, 4.76962705e-05,
          1.43088808e-04, 3.14795389e-03, 5.72355231e-04, 1.43088808e-04,
          2.86177616e-04, 6.20051520e-04, 2.86177616e-04, 3.81570164e-04,
          4.76962712e-04, 9.82543174e-03, 3.05256131e-03, 3.29104275e-03,
          2.38481356e-04, 3.38643510e-03, 4.76962705e-05, 4.76962705e-05,
          9.53925410e-05, 3.00486502e-03, 8.15606210e-03, 4.10187943e-03,
          5.72355231e-04, 5.62815974e-03, 3.76800541e-03, 2.33711721e-03,
          9.25307628e-03, 9.19107124e-02, 1.79337971e-02, 4.08757031e-02,
          1.86015456e-03, 1.84202999e-01, 1.62167323e-03, 1.00162171e-03,
          2.52790237e-03, 1.18239053e-01, 3.57722025e-03, 2.05093971e-03,
          2.86177616e-04, 3.52952396e-03, 1.09701417e-03, 1.00162171e-03,
          3.86339799e-03, 8.65210369e-02, 9.06229136e-04, 1.14471046e-03,
          0., 2.71868752e-03, 4.76962705e-05, 4.76962705e-05,
          9.53925410e-05, 2.24172464e-03, 1.66936952e-03, 1.19240675e-03,
          3.33873904e-04, 2.24172464e-03, 1.00162171e-03, 2.14633206e-03,
          2.33711721e-03, 5.13211861e-02, 8.36592615e-02, 1.79004103e-01,
          5.05580474e-03, 2.23886296e-01, 3.05256131e-03, 2.52790237e-03,
          3.67261283e-03, 9.10998732e-02, 6.77287020e-03, 3.67261283e-03,
          8.10836616e-04, 9.39616561e-03, 4.29266412e-03, 1.95554714e-03,
          5.77124860e-03, 9.54402387e-02, 3.77611369e-01, 1.31355524e-01,
          3.62491654e-03, 9.43432227e-02, 4.38805670e-03, 2.86177616e-03,
          3.19565018e-03, 7.22121522e-02, 4.02079552e-01, 9.43432227e-02,
          9.73003916e-03, 1.00734524e-01, 9.96852070e-02, 5.36106080e-02,
          1.06791951e-01, 1. ]
      - [ 2.45898124e-02, 2.61320313e-03, 1.53793423e-02, 1.02386149e-02,
          2.82740011e-03, 2.99875770e-04, 1.14381183e-02, 4.01833504e-02,
          3.14869545e-02, 1.75641512e-03, 2.18480919e-03, 1.75641512e-03,
          1.76926702e-02, 8.99627281e-04, 7.19273463e-02, 3.06944251e-01,
          3.21295462e-03, 3.42715153e-04, 1.15666364e-03, 9.85306106e-04,
          4.71233332e-04, 4.28393942e-05, 5.99751540e-04, 8.99627281e-04,
          1.86351370e-02, 6.85430306e-04, 2.39900616e-03, 1.24234241e-03,
          4.09544595e-02, 8.13948514e-04, 1.73713744e-01, 1.13053158e-01,
          1.43511966e-02, 9.42466664e-04, 6.68294542e-03, 2.18480919e-03,
          1.11382420e-03, 1.71357577e-04, 2.27048784e-03, 1.84209400e-03,
          2.18480919e-03, 4.28393942e-05, 4.28393949e-04, 3.85554536e-04,
          2.22764839e-03, 8.56787883e-05, 4.96936962e-03, 2.65604234e-03,
          1.25519428e-02, 7.28269690e-04, 1.84209400e-03, 1.54221815e-03,
          6.42590923e-04, 4.28393942e-05, 8.13948514e-04, 1.19950308e-03,
          8.07094201e-02, 3.12727573e-03, 4.92653018e-03, 2.95591820e-03,
          2.07471192e-01, 2.61320313e-03, 2.70316571e-01, 9.59602445e-02,
          3.04159708e-03, 3.85554536e-04, 1.41370005e-03, 5.99751540e-04,
          5.14072715e-04, 1.28518179e-04, 8.56787898e-04, 1.02814543e-03,
          1.97061221e-03, 1.28518179e-04, 2.14196974e-04, 8.56787883e-05,
          8.56787898e-04, 0., 2.91307876e-03, 2.87023932e-03,
          5.14072715e-04, 8.56787883e-05, 4.28393942e-05, 0.,
          8.56787883e-05, 4.28393942e-05, 8.56787883e-05, 2.14196974e-04,
          7.28269690e-04, 8.56787883e-05, 1.28518179e-04, 1.71357577e-04,
          1.07098487e-03, 1.71357577e-04, 2.74172123e-03, 2.61320313e-03,
          1.14809573e-02, 6.42590923e-04, 2.14196974e-03, 1.07098487e-03,
          1.11382420e-03, 0., 1.24234241e-03, 8.56787898e-04,
          2.31332728e-03, 4.28393942e-05, 2.57036358e-04, 1.71357577e-04,
          2.18480919e-03, 0., 3.04159708e-03, 2.05629086e-03,
          4.82371561e-02, 8.99627281e-04, 3.04159708e-03, 7.71109073e-04,
          9.42466664e-04, 4.28393949e-04, 1.07098487e-03, 5.01220906e-03,
          2.68174618e-01, 2.65604234e-03, 2.91307876e-03, 2.31332728e-03,
          1.28089786e-01, 2.78456067e-03, 1.02557510e-01, 7.21415430e-02,
          3.00732553e-02, 1.61932912e-02, 2.31332728e-03, 6.96996972e-02,
          1.79925456e-03, 7.71109073e-04, 2.39900616e-03, 2.46155158e-01,
          2.00059973e-02, 3.85554554e-03, 5.14072715e-04, 7.23985769e-03,
          3.38431215e-03, 1.75641512e-03, 7.62541220e-03, 3.01332295e-01,
          1.28518185e-03, 8.99627281e-04, 0., 2.52752425e-03,
          1.28518179e-04, 8.56787883e-05, 1.28518179e-04, 3.29863327e-03,
          3.98406386e-03, 1.02814543e-03, 1.71357577e-04, 3.59850912e-03,
          2.31332728e-03, 8.99627281e-04, 3.81270610e-03, 7.90815204e-02,
          2.48468481e-03, 2.09913030e-03, 4.71233332e-04, 3.89838498e-03,
          1.71357577e-04, 4.28393942e-05, 2.57036358e-04, 3.08443629e-03,
          6.85430306e-04, 3.42715153e-04, 3.42715153e-04, 8.56787898e-04,
          1.28518179e-04, 1.71357577e-04, 6.42590923e-04, 8.99627246e-03,
          2.69888178e-03, 2.01345142e-03, 5.14072715e-04, 2.18480919e-03,
          8.56787883e-05, 0., 8.56787883e-05, 1.92777277e-03,
          6.59726653e-03, 3.72702722e-03, 8.56787898e-04, 5.09788794e-03,
          4.54097567e-03, 1.71357580e-03, 1.13524394e-02, 9.45465416e-02,
          1.73071157e-02, 3.59422527e-02, 1.88493333e-03, 1.48781210e-01,
          1.02814543e-03, 1.02814543e-03, 2.14196974e-03, 1.07783914e-01,
          3.17011517e-03, 2.18480919e-03, 3.85554536e-04, 4.24110005e-03,
          1.62789703e-03, 1.19950308e-03, 3.08443629e-03, 8.01096708e-02,
          8.13948514e-04, 7.71109073e-04, 4.28393942e-05, 2.27048784e-03,
          4.28393942e-05, 2.99875770e-04, 8.56787883e-05, 2.05629086e-03,
          1.07098487e-03, 1.32802117e-03, 1.71357577e-04, 2.14196974e-03,
          8.99627281e-04, 1.54221815e-03, 1.97061221e-03, 4.51098830e-02,
          7.20558614e-02, 1.37428775e-01, 4.32677893e-03, 2.24007189e-01,
          3.38431215e-03, 2.35616672e-03, 2.82740011e-03, 8.90202597e-02,
          5.99751528e-03, 4.11258172e-03, 7.28269690e-04, 1.10954028e-02,
          3.04159708e-03, 1.75641512e-03, 5.74047863e-03, 9.72454250e-02,
          2.98033655e-01, 1.14723898e-01, 2.91307876e-03, 9.18476582e-02,
          3.38431215e-03, 2.22764839e-03, 2.39900616e-03, 7.16274679e-02,
          3.64220530e-01, 9.11193937e-02, 1.28089786e-02, 1.04570962e-01,
          9.39039513e-02, 4.78516035e-02, 1.08854897e-01, 1. ]
      - [ 2.37326901e-02, 2.69596837e-03, 1.40517140e-02, 9.96691268e-03,
          3.14529636e-03, 3.26784037e-04, 1.07430248e-02, 3.66406590e-02,
          2.36509945e-02, 1.38883211e-03, 2.32833624e-03, 2.24664016e-03,
          1.50320660e-02, 7.35264097e-04, 6.98092431e-02, 2.28258654e-01,
          3.26784048e-03, 2.45088013e-04, 1.18459214e-03, 1.06204813e-03,
          2.85936025e-04, 0., 5.71872049e-04, 1.02120009e-03,
          1.59715693e-02, 1.14374410e-03, 1.96070410e-03, 1.42968015e-03,
          3.99085023e-02, 1.38883211e-03, 1.58735350e-01, 1.10371307e-01,
          1.52363060e-02, 1.06204813e-03, 6.90331263e-03, 2.32833624e-03,
          8.16960121e-04, 2.04240030e-04, 2.20579235e-03, 1.67476817e-03,
          2.12409627e-03, 4.08480046e-05, 5.71872049e-04, 1.22544006e-04,
          2.32833624e-03, 4.08480046e-05, 4.53412859e-03, 3.26784048e-03,
          1.16008334e-02, 7.76112080e-04, 1.96070410e-03, 1.02120009e-03,
          5.31024067e-04, 4.08480046e-05, 1.30713615e-03, 7.35264097e-04,
          7.03402609e-02, 3.51292850e-03, 4.28904034e-03, 2.98190443e-03,
          1.95825338e-01, 3.22699244e-03, 2.76581854e-01, 1.02405950e-01,
          2.32833624e-03, 2.45088013e-04, 6.94416056e-04, 8.16960121e-04,
          3.26784037e-04, 4.08480046e-05, 9.80352052e-04, 1.02120009e-03,
          1.34798419e-03, 2.04240030e-04, 1.63392018e-04, 4.08480046e-05,
          1.26628811e-03, 1.22544006e-04, 3.10444832e-03, 2.36918428e-03,
          5.31024067e-04, 1.63392018e-04, 2.04240030e-04, 8.16960091e-05,
          1.63392018e-04, 0., 0., 8.16960091e-05, 9.39504127e-04,
          4.08480046e-05, 8.16960091e-05, 4.08480046e-05, 1.06204813e-03,
          8.16960091e-05, 1.96070410e-03, 2.36918428e-03, 1.08655691e-02,
          2.85936025e-04, 2.36918428e-03, 8.98656086e-04, 8.16960121e-04,
          8.16960091e-05, 1.06204813e-03, 1.30713615e-03, 2.69596837e-03,
          0., 1.63392018e-04, 2.45088013e-04, 2.04240019e-03,
          4.08480046e-05, 3.79886432e-03, 2.00155214e-03, 3.68449017e-02,
          8.16960121e-04, 2.73681642e-03, 8.57808103e-04, 7.76112080e-04,
          1.63392018e-04, 1.22544018e-03, 3.59462434e-03, 2.42678002e-01,
          3.18614440e-03, 2.98190443e-03, 1.87900825e-03, 1.18540913e-01,
          3.47208045e-03, 1.04121566e-01, 6.98092431e-02, 2.68371385e-02,
          1.67885292e-02, 1.91985618e-03, 6.53976575e-02, 1.26628811e-03,
          5.31024067e-04, 2.08324823e-03, 2.59017199e-01, 1.67476814e-02,
          2.85936031e-03, 6.94416056e-04, 6.08635275e-03, 4.00310429e-03,
          1.10289617e-03, 6.53568096e-03, 2.89530665e-01, 1.14374410e-03,
          1.22544018e-03, 2.04240030e-04, 3.30868829e-03, 2.45088013e-04,
          8.16960091e-05, 1.22544006e-04, 3.10444832e-03, 2.81851226e-03,
          1.22544018e-03, 3.26784037e-04, 2.98190443e-03, 2.49172817e-03,
          1.14374410e-03, 4.77921637e-03, 8.28806013e-02, 2.04240019e-03,
          1.63392024e-03, 4.08480060e-04, 3.92140821e-03, 3.67632048e-04,
          8.16960091e-05, 3.67632048e-04, 3.10444832e-03, 6.94416056e-04,
          4.08480060e-04, 2.85936025e-04, 6.12720090e-04, 3.67632048e-04,
          1.63392018e-04, 7.35264097e-04, 8.25129729e-03, 2.08324823e-03,
          1.59307220e-03, 1.63392018e-04, 3.02275224e-03, 0.,
          4.08480046e-05, 1.22544006e-04, 1.63392024e-03, 6.57652877e-03,
          2.94105639e-03, 8.57808103e-04, 5.47363283e-03, 4.00310429e-03,
          1.87900825e-03, 1.43376496e-02, 1.11433357e-01, 1.58490259e-02,
          3.27600986e-02, 1.87900825e-03, 1.48931831e-01, 1.22544018e-03,
          1.02120009e-03, 2.57342425e-03, 1.00363545e-01, 3.88056040e-03,
          2.04240019e-03, 2.85936025e-04, 3.47208045e-03, 1.42968015e-03,
          1.18459214e-03, 3.88056040e-03, 7.63857663e-02, 6.53568073e-04,
          1.14374410e-03, 8.16960091e-05, 2.41003232e-03, 0.,
          2.04240030e-04, 1.22544006e-04, 2.16494431e-03, 1.47052819e-03,
          7.35264097e-04, 1.63392018e-04, 1.96070410e-03, 8.57808103e-04,
          1.71561621e-03, 2.12409627e-03, 4.50961962e-02, 6.96458444e-02,
          1.26261190e-01, 4.28904034e-03, 2.25195050e-01, 2.53257621e-03,
          2.00155214e-03, 3.34953633e-03, 9.04374793e-02, 6.45398488e-03,
          3.96225648e-03, 5.31024067e-04, 1.13965934e-02, 3.55377630e-03,
          2.45088036e-03, 6.73992094e-03, 9.41955000e-02, 2.36550793e-01,
          1.12086922e-01, 3.34953633e-03, 9.48490649e-02, 3.43123241e-03,
          2.49172817e-03, 2.24664016e-03, 6.69907257e-02, 3.08810920e-01,
          9.09685045e-02, 1.03345448e-02, 1.05101913e-01, 9.09276605e-02,
          4.52187397e-02, 1.15559004e-01, 1. ]
      - [ 2.14550737e-02, 3.26665607e-03, 1.21390549e-02, 1.09695112e-02,
          3.18599795e-03, 3.22632695e-04, 1.18164225e-02, 3.35134715e-02,
          2.04065181e-02, 8.46910814e-04, 2.33908696e-03, 2.13744165e-03,
          1.32682696e-02, 3.22632695e-04, 6.46878555e-02, 1.89587042e-01,
          2.70204875e-03, 5.24278148e-04, 7.25923572e-04, 9.67898057e-04,
          2.01645438e-04, 4.03290869e-05, 1.00822712e-03, 8.87239934e-04,
          1.29859662e-02, 1.25020172e-03, 1.61316351e-03, 2.70204875e-03,
          4.00871113e-02, 1.00822712e-03, 1.72245532e-01, 1.09493472e-01,
          1.10501694e-02, 1.53250527e-03, 5.96870482e-03, 1.93579611e-03,
          7.66252633e-04, 2.82303605e-04, 2.09711259e-03, 2.58106156e-03,
          2.13744165e-03, 2.41974514e-04, 3.62961786e-04, 2.41974514e-04,
          2.01645424e-03, 0., 5.28311031e-03, 4.07323800e-03,
          9.55799315e-03, 8.87239934e-04, 1.85513799e-03, 8.46910814e-04,
          7.25923572e-04, 4.03290869e-05, 1.29053078e-03, 1.04855630e-03,
          6.23487681e-02, 3.58928880e-03, 4.27488331e-03, 3.06501053e-03,
          1.88578814e-01, 2.41974532e-03, 2.70567834e-01, 1.02758512e-01,
          3.18599795e-03, 2.82303605e-04, 8.06581753e-04, 6.45265391e-04,
          5.24278148e-04, 8.06581738e-05, 7.25923572e-04, 7.25923572e-04,
          1.61316351e-03, 1.20987257e-04, 1.20987257e-04, 1.61316348e-04,
          1.45184714e-03, 4.03290869e-05, 2.54073250e-03, 2.82303616e-03,
          4.43619967e-04, 4.03290869e-05, 1.20987257e-04, 8.06581738e-05,
          1.20987257e-04, 4.03290869e-05, 4.03290869e-05, 1.61316348e-04,
          4.43619967e-04, 0., 1.61316348e-04, 4.03290869e-05,
          9.27568995e-04, 2.01645438e-04, 2.05678353e-03, 2.29875790e-03,
          1.02032591e-02, 4.83949028e-04, 2.46007438e-03, 8.87239934e-04,
          1.12921442e-03, 1.20987257e-04, 1.00822712e-03, 8.46910814e-04,
          1.81480893e-03, 4.03290869e-05, 1.61316348e-04, 2.01645438e-04,
          1.65349257e-03, 4.03290869e-05, 3.22632701e-03, 1.93579611e-03,
          3.38764340e-02, 1.00822712e-03, 2.25842884e-03, 1.16954348e-03,
          1.00822712e-03, 2.01645438e-04, 1.00822712e-03, 2.25842884e-03,
          2.09428951e-01, 2.82303616e-03, 2.90369429e-03, 2.46007438e-03,
          1.10058077e-01, 2.54073250e-03, 9.19906497e-02, 5.74689470e-02,
          2.09711250e-02, 1.53250527e-02, 2.62139062e-03, 7.59396702e-02,
          1.93579611e-03, 4.03290876e-04, 2.17777072e-03, 2.31690601e-01,
          1.13324737e-02, 2.90369429e-03, 3.22632695e-04, 6.69462839e-03,
          2.94402335e-03, 9.67898057e-04, 5.64607233e-03, 2.60525912e-01,
          1.45184714e-03, 1.41151808e-03, 1.61316348e-04, 3.22632701e-03,
          2.01645438e-04, 4.03290869e-05, 0., 3.06501053e-03,
          2.90369429e-03, 1.20987266e-03, 1.61316348e-04, 3.46830138e-03,
          2.13744165e-03, 8.06581753e-04, 4.35554143e-03, 8.71108249e-02,
          2.09711259e-03, 2.41974532e-03, 3.22632695e-04, 4.71850298e-03,
          1.61316348e-04, 4.03290869e-05, 2.41974514e-04, 3.54895974e-03,
          9.67898057e-04, 4.03290876e-04, 5.24278148e-04, 6.85594452e-04,
          2.01645438e-04, 3.22632695e-04, 8.06581753e-04, 8.99338629e-03,
          2.29875790e-03, 1.85513799e-03, 2.41974514e-04, 3.54895974e-03,
          4.03290869e-05, 8.06581738e-05, 1.61316348e-04, 2.41974532e-03,
          5.44442656e-03, 2.74237781e-03, 9.67898057e-04, 6.97693182e-03,
          3.75060504e-03, 2.21809978e-03, 1.21793840e-02, 1.07839979e-01,
          1.56073570e-02, 3.63365076e-02, 1.69382163e-03, 1.82852075e-01,
          9.67898057e-04, 5.24278148e-04, 1.45184714e-03, 1.39457986e-01,
          3.50863067e-03, 2.09711259e-03, 2.01645438e-04, 4.23455425e-03,
          1.29053078e-03, 6.85594452e-04, 3.38764326e-03, 9.66284946e-02,
          6.85594452e-04, 8.46910814e-04, 0., 2.37941602e-03,
          8.06581738e-05, 8.06581738e-05, 0., 2.33908696e-03,
          1.08888536e-03, 7.66252633e-04, 2.41974514e-04, 1.77447987e-03,
          7.66252633e-04, 1.73415069e-03, 2.21809978e-03, 4.84755635e-02,
          6.61397055e-02, 1.55791268e-01, 4.55718674e-03, 2.74963707e-01,
          2.94402335e-03, 2.82303616e-03, 3.42797232e-03, 1.12639137e-01,
          6.33166684e-03, 3.30698513e-03, 6.85594452e-04, 1.33892568e-02,
          3.06501053e-03, 1.57283444e-03, 6.89627370e-03, 1.21551871e-01,
          2.05678344e-01, 1.09533802e-01, 2.94402335e-03, 1.01790614e-01,
          2.01645424e-03, 2.13744165e-03, 2.05678353e-03, 6.35586381e-02,
          2.59356350e-01, 8.47314149e-02, 1.02032591e-02, 1.06025167e-01,
          8.28762725e-02, 4.62977923e-02, 1.03282794e-01, 1. ]
      - [ 1.85935982e-02, 2.44652596e-03, 1.15685733e-02, 7.65413139e-03,
          2.23682378e-03, 5.24255564e-04, 7.61918118e-03, 2.83098016e-02,
          1.75101366e-02, 1.29316375e-03, 2.13197269e-03, 1.78246899e-03,
          1.13588711e-02, 2.79602973e-04, 5.12022935e-02, 1.73913047e-01,
          2.37662531e-03, 1.39801487e-04, 8.73759273e-04, 9.78610362e-04,
          1.74751855e-04, 1.39801487e-04, 4.89305181e-04, 9.08709655e-04,
          1.04851117e-02, 9.78610362e-04, 1.57276669e-03, 1.53781637e-03,
          3.03718727e-02, 6.64057035e-04, 1.30679443e-01, 8.98224562e-02,
          1.22675803e-02, 1.18831266e-03, 5.83671220e-03, 1.57276669e-03,
          9.08709655e-04, 1.74751855e-04, 1.81741931e-03, 1.81741931e-03,
          2.09702225e-03, 1.39801487e-04, 4.89305181e-04, 4.19404474e-04,
          1.43296528e-03, 1.04851119e-04, 3.98434233e-03, 2.34167487e-03,
          7.86383357e-03, 4.54354828e-04, 1.50286593e-03, 1.18831266e-03,
          5.94156329e-04, 6.99007433e-05, 5.94156329e-04, 9.78610362e-04,
          5.00139818e-02, 2.76107946e-03, 3.21543426e-03, 2.65622814e-03,
          1.43646032e-01, 2.48147640e-03, 2.08339170e-01, 7.93373436e-02,
          2.41157576e-03, 5.59205946e-04, 8.38808948e-04, 6.64057035e-04,
          2.79602973e-04, 3.49503716e-05, 9.43660038e-04, 8.38808948e-04,
          1.39801484e-03, 1.39801487e-04, 1.39801487e-04, 3.49503716e-05,
          9.78610362e-04, 3.49503716e-05, 3.07563273e-03, 2.06207181e-03,
          5.94156329e-04, 0., 1.04851119e-04, 6.99007433e-05, 0., 0.,
          3.49503716e-05, 1.04851119e-04, 3.49503709e-04, 3.49503716e-05,
          6.99007433e-05, 3.49503716e-05, 5.94156329e-04, 1.74751855e-04,
          2.13197269e-03, 1.99217116e-03, 7.51433009e-03, 5.59205946e-04,
          2.16692314e-03, 9.78610362e-04, 9.43660038e-04, 3.49503716e-05,
          1.36306451e-03, 8.73759273e-04, 2.09702225e-03, 1.74751855e-04,
          2.44652590e-04, 1.04851119e-04, 2.16692314e-03, 3.49503716e-05,
          3.00573185e-03, 2.41157576e-03, 2.75758430e-02, 4.89305181e-04,
          2.44652596e-03, 8.38808948e-04, 1.22326298e-03, 6.99007433e-05,
          7.33957801e-04, 2.51642684e-03, 1.51020557e-01, 2.41157576e-03,
          2.58632749e-03, 1.57276669e-03, 8.68866220e-02, 2.41157576e-03,
          7.64015093e-02, 4.82315123e-02, 1.82440933e-02, 1.29316375e-02,
          2.02712161e-03, 6.02544397e-02, 9.43660038e-04, 5.59205946e-04,
          1.95722072e-03, 1.64476454e-01, 1.01006571e-02, 1.88732008e-03,
          8.03858566e-04, 5.17265499e-03, 1.99217116e-03, 8.73759273e-04,
          5.24255587e-03, 2.47763187e-01, 1.22326298e-03, 6.64057035e-04,
          1.39801487e-04, 3.14553338e-03, 1.04851119e-04, 3.49503716e-05,
          6.99007433e-05, 2.41157576e-03, 2.44652596e-03, 1.04851113e-03,
          3.14553356e-04, 2.90088076e-03, 1.64266746e-03, 8.38808948e-04,
          2.69117858e-03, 7.41646886e-02, 1.57276669e-03, 1.22326298e-03,
          5.94156329e-04, 3.98434233e-03, 1.39801487e-04, 1.39801487e-04,
          2.79602973e-04, 2.93583120e-03, 3.14553356e-04, 3.49503709e-04,
          3.14553356e-04, 6.64057035e-04, 2.09702237e-04, 2.09702237e-04,
          7.33957801e-04, 9.61135235e-03, 1.64266746e-03, 1.29316375e-03,
          2.44652590e-04, 3.56493797e-03, 1.04851119e-04, 0.,
          6.99007433e-05, 1.43296528e-03, 4.12414363e-03, 3.56493797e-03,
          6.29106711e-04, 6.25611655e-03, 4.01929254e-03, 1.71256822e-03,
          1.03103593e-02, 9.44708511e-02, 1.15336226e-02, 3.22242416e-02,
          1.64266746e-03, 1.33790016e-01, 9.08709655e-04, 1.08346157e-03,
          1.88732008e-03, 9.96784568e-02, 2.90088076e-03, 1.99217116e-03,
          1.39801487e-04, 4.68334975e-03, 1.15336222e-03, 7.68908183e-04,
          3.21543426e-03, 8.68167207e-02, 9.43660038e-04, 6.99007418e-04,
          0., 2.65622814e-03, 0., 1.39801487e-04, 3.49503716e-05,
          2.02712161e-03, 1.15336222e-03, 6.29106711e-04, 2.09702237e-04,
          1.78246899e-03, 6.99007418e-04, 1.64266746e-03, 1.78246899e-03,
          4.02628295e-02, 5.36837727e-02, 1.31308541e-01, 3.77464015e-03,
          2.48147637e-01, 2.65622814e-03, 2.48147640e-03, 4.08919342e-03,
          1.06423885e-01, 4.89305193e-03, 4.36879648e-03, 6.99007418e-04,
          1.38053969e-02, 2.93583120e-03, 1.67761790e-03, 4.82315151e-03,
          1.17433250e-01, 1.67936534e-01, 9.20942277e-02, 3.07563273e-03,
          1.00062914e-01, 2.55137705e-03, 1.64266746e-03, 2.02712161e-03,
          5.41031770e-02, 2.33713135e-01, 7.80441836e-02, 9.01719555e-03,
          1.06004477e-01, 7.54229054e-02, 4.25346009e-02, 9.21990797e-02,
          1. ]
      - [ 1.71236452e-02, 2.42642732e-03, 8.90845433e-03, 8.28451663e-03,
          2.21844786e-03, 3.11969226e-04, 8.97778105e-03, 2.54774876e-02,
          1.64997056e-02, 1.62917259e-03, 1.42119313e-03, 1.90647866e-03,
          1.15081985e-02, 2.42642738e-04, 5.68130650e-02, 1.77857131e-01,
          2.39176420e-03, 2.77305982e-04, 1.07456069e-03, 8.66581220e-04,
          3.11969226e-04, 3.46632478e-05, 5.19948720e-04, 9.70570953e-04,
          1.13348821e-02, 9.35907708e-04, 1.55984610e-03, 1.42119313e-03,
          3.25487889e-02, 7.62591430e-04, 1.38341025e-01, 9.88595858e-02,
          1.00870049e-02, 1.03989744e-03, 4.47155908e-03, 1.45585637e-03,
          5.54611965e-04, 1.38652991e-04, 1.17855042e-03, 2.14912137e-03,
          2.25311122e-03, 4.15958988e-04, 4.15958988e-04, 1.38652991e-04,
          1.31720339e-03, 1.03989747e-04, 3.70896747e-03, 2.98103923e-03,
          7.79923098e-03, 5.54611965e-04, 1.45585637e-03, 1.00523420e-03,
          5.89275209e-04, 3.46632478e-05, 5.19948720e-04, 7.97254674e-04,
          5.06776683e-02, 3.22368206e-03, 3.29300854e-03, 2.53041717e-03,
          1.41738027e-01, 1.49051961e-03, 2.73908973e-01, 9.51852798e-02,
          2.35710084e-03, 4.15958988e-04, 7.27928185e-04, 6.93264941e-04,
          2.77305982e-04, 3.46632478e-05, 5.89275209e-04, 7.97254674e-04,
          1.00523420e-03, 3.46632478e-05, 3.11969226e-04, 3.46632478e-05,
          7.62591430e-04, 0., 3.01570259e-03, 2.70373328e-03,
          2.77305982e-04, 0., 2.42642738e-04, 3.46632478e-05,
          3.46632478e-05, 3.46632478e-05, 3.46632478e-05, 1.38652991e-04,
          7.27928185e-04, 6.93264956e-05, 1.03989747e-04, 1.03989747e-04,
          1.07456069e-03, 6.93264956e-05, 2.14912137e-03, 2.25311122e-03,
          7.83389434e-03, 6.23938453e-04, 1.76782568e-03, 7.27928185e-04,
          5.54611965e-04, 1.03989747e-04, 1.03989744e-03, 7.27928185e-04,
          1.90647866e-03, 3.46632478e-05, 2.07979494e-04, 1.73316235e-04,
          1.49051961e-03, 3.46632478e-05, 2.42642732e-03, 1.49051961e-03,
          2.63440683e-02, 8.31917976e-04, 1.97580503e-03, 5.54611965e-04,
          9.01244464e-04, 1.73316235e-04, 1.00523420e-03, 2.04513152e-03,
          1.57509804e-01, 2.66907015e-03, 3.08502908e-03, 1.73316244e-03,
          8.53062496e-02, 2.25311122e-03, 8.62421617e-02, 5.20988628e-02,
          1.68116745e-02, 1.06416168e-02, 1.73316244e-03, 5.75063266e-02,
          9.70570953e-04, 7.27928185e-04, 1.73316244e-03, 1.61461413e-01,
          1.00176791e-02, 2.84238625e-03, 4.50622232e-04, 5.96207846e-03,
          1.94114191e-03, 1.14388717e-03, 5.16482396e-03, 2.37720549e-01,
          1.07456069e-03, 1.00523420e-03, 1.03989747e-04, 2.80772313e-03,
          2.77305982e-04, 3.46632478e-05, 1.03989747e-04, 1.94114191e-03,
          2.25311122e-03, 1.03989744e-03, 2.77305982e-04, 2.49575381e-03,
          1.76782568e-03, 7.97254674e-04, 3.46632488e-03, 7.68484175e-02,
          2.35710084e-03, 1.38652988e-03, 2.77305982e-04, 4.33290610e-03,
          1.38652991e-04, 1.03989747e-04, 2.07979494e-04, 2.80772313e-03,
          4.50622232e-04, 1.38652991e-04, 2.07979494e-04, 6.58601697e-04,
          1.73316235e-04, 1.73316235e-04, 3.46632471e-04, 9.08177067e-03,
          1.14388717e-03, 1.76782568e-03, 2.42642738e-04, 2.98103923e-03,
          1.03989747e-04, 1.38652991e-04, 6.93264956e-05, 1.73316244e-03,
          5.65010961e-03, 2.98103923e-03, 6.58601697e-04, 5.51145617e-03,
          3.39699839e-03, 9.35907708e-04, 1.17855044e-02, 1.01944610e-01,
          1.24094430e-02, 2.65520476e-02, 1.59450935e-03, 1.09397210e-01,
          8.66581220e-04, 9.35907708e-04, 1.35186664e-03, 9.64678153e-02,
          2.21844786e-03, 2.07979488e-03, 3.11969226e-04, 3.63964099e-03,
          9.01244464e-04, 1.00523420e-03, 2.63440679e-03, 8.54449049e-02,
          4.15958988e-04, 1.03989744e-03, 3.46632478e-05, 2.28777435e-03,
          1.03989747e-04, 1.38652991e-04, 6.93264956e-05, 2.14912137e-03,
          9.70570953e-04, 8.66581220e-04, 2.07979494e-04, 1.35186664e-03,
          8.31917976e-04, 9.70570953e-04, 1.45585637e-03, 3.42126265e-02,
          4.96377721e-02, 1.02117926e-01, 4.05560015e-03, 2.02572018e-01,
          3.15435557e-03, 2.80772313e-03, 3.05036572e-03, 9.90329012e-02,
          5.40746655e-03, 3.18901869e-03, 4.85285476e-04, 1.29987178e-02,
          2.49575381e-03, 1.59450935e-03, 5.65010961e-03, 1.16017893e-01,
          1.72726959e-01, 8.41623619e-02, 3.11969221e-03, 9.09217000e-02,
          2.42642732e-03, 2.04513152e-03, 1.42119313e-03, 5.31734228e-02,
          2.35294133e-01, 7.28968084e-02, 8.31917953e-03, 1.01459324e-01,
          7.87895620e-02, 3.61884311e-02, 1.01112694e-01, 1. ]
      - [ 1.67938415e-02, 2.69110221e-03, 9.33369622e-03, 9.50401928e-03,
          1.94168137e-03, 4.76904213e-04, 7.97111262e-03, 2.58550197e-02,
          1.69300996e-02, 1.15819590e-03, 1.77135842e-03, 1.83948758e-03,
          1.12072490e-02, 5.10968792e-04, 4.90189381e-02, 1.92362711e-01,
          2.38452107e-03, 2.72516685e-04, 7.15356320e-04, 7.49420899e-04,
          2.72516685e-04, 6.81291713e-05, 4.08775028e-04, 4.76904213e-04,
          1.07644089e-02, 1.15819590e-03, 1.80542306e-03, 2.00981065e-03,
          2.82395408e-02, 8.85679212e-04, 1.24301672e-01, 8.89426321e-02,
          9.64027736e-03, 9.53808427e-04, 4.49652551e-03, 1.46477716e-03,
          7.15356320e-04, 1.02193757e-04, 1.19226053e-03, 2.18013348e-03,
          1.97574589e-03, 2.38452107e-04, 3.40645842e-04, 2.04387514e-04,
          1.73729390e-03, 3.40645856e-05, 4.05368581e-03, 2.52077938e-03,
          8.27769469e-03, 8.85679212e-04, 1.43071264e-03, 1.09006674e-03,
          7.49420899e-04, 3.40645856e-05, 7.83485477e-04, 7.83485477e-04,
          5.02452627e-02, 2.38452107e-03, 4.39433148e-03, 2.79329601e-03,
          1.38131902e-01, 1.83948758e-03, 2.49114320e-01, 7.87232593e-02,
          2.11200421e-03, 4.76904213e-04, 7.15356320e-04, 6.13162527e-04,
          4.42839606e-04, 3.40645856e-05, 9.19743790e-04, 8.17550055e-04,
          9.53808427e-04, 1.36258343e-04, 1.70322921e-04, 1.02193757e-04,
          6.81291684e-04, 6.81291713e-05, 2.75923149e-03, 2.62297317e-03,
          4.42839606e-04, 3.40645856e-05, 2.04387514e-04, 1.36258343e-04,
          0., 3.40645856e-05, 3.40645856e-05, 1.02193757e-04,
          3.40645842e-04, 6.81291713e-05, 1.36258343e-04, 6.81291713e-05,
          8.17550055e-04, 2.04387514e-04, 2.65703769e-03, 1.90761685e-03,
          8.37988779e-03, 4.42839606e-04, 1.32851885e-03, 6.13162527e-04,
          7.83485477e-04, 1.36258343e-04, 1.12413138e-03, 7.83485477e-04,
          1.63510011e-03, 3.40645856e-05, 2.04387514e-04, 2.04387514e-04,
          1.60103547e-03, 0., 2.48671486e-03, 1.77135842e-03,
          2.52077933e-02, 4.76904213e-04, 2.48671486e-03, 5.79097949e-04,
          9.53808427e-04, 1.02193757e-04, 6.47227105e-04, 2.31639179e-03,
          1.46988690e-01, 2.52077938e-03, 2.52077938e-03, 1.73729390e-03,
          7.89617077e-02, 1.60103547e-03, 8.19934607e-02, 4.85420339e-02,
          1.76795200e-02, 1.19566694e-02, 1.53290632e-03, 5.37539162e-02,
          9.19743790e-04, 5.45033370e-04, 1.26038969e-03, 1.52813733e-01,
          1.08325379e-02, 2.28232727e-03, 6.13162527e-04, 5.14375232e-03,
          2.00981065e-03, 9.19743790e-04, 5.07562328e-03, 2.32831448e-01,
          9.19743790e-04, 7.83485477e-04, 1.70322921e-04, 3.20207095e-03,
          2.38452107e-04, 0., 1.02193757e-04, 2.00981065e-03,
          2.04387517e-03, 1.09006674e-03, 1.70322921e-04, 2.45265011e-03,
          1.56697095e-03, 6.47227105e-04, 3.74710443e-03, 7.17400163e-02,
          2.14606896e-03, 1.46477716e-03, 4.08775028e-04, 3.95149179e-03,
          1.36258343e-04, 3.40645856e-05, 2.04387514e-04, 4.05368581e-03,
          6.81291684e-04, 1.70322921e-04, 5.10968792e-04, 5.79097949e-04,
          3.06581263e-04, 1.70322921e-04, 7.15356320e-04, 8.14143568e-03,
          2.11200421e-03, 1.97574589e-03, 3.06581263e-04, 3.20207095e-03,
          1.02193757e-04, 0., 1.36258343e-04, 1.66916475e-03,
          4.66684811e-03, 2.99768359e-03, 3.06581263e-04, 5.07562328e-03,
          3.40645853e-03, 1.60103547e-03, 1.07303448e-02, 9.28600580e-02,
          1.13094421e-02, 2.78988965e-02, 1.46477716e-03, 1.24131352e-01,
          9.53808427e-04, 9.87872947e-04, 1.83948758e-03, 9.43248346e-02,
          2.35045631e-03, 2.24826275e-03, 2.38452107e-04, 3.67897516e-03,
          1.22632505e-03, 9.19743790e-04, 2.65703769e-03, 8.02902281e-02,
          5.79097949e-04, 1.12413138e-03, 1.70322921e-04, 2.65703769e-03,
          0., 1.02193757e-04, 6.81291713e-05, 1.90761685e-03,
          1.05600210e-03, 8.51614634e-04, 1.36258343e-04, 1.66916475e-03,
          9.19743790e-04, 1.09006674e-03, 1.49884180e-03, 3.82545292e-02,
          5.31748198e-02, 1.08734161e-01, 4.08775033e-03, 2.26120725e-01,
          3.03174811e-03, 2.58890842e-03, 2.35045631e-03, 1.00218013e-01,
          4.76904213e-03, 4.63278359e-03, 4.76904213e-04, 1.26720257e-02,
          2.72516673e-03, 1.43071264e-03, 5.58659201e-03, 1.14388876e-01,
          1.77033648e-01, 8.93173441e-02, 2.79329601e-03, 8.81250799e-02,
          2.07793969e-03, 2.21419800e-03, 1.80542306e-03, 5.37198521e-02,
          2.19239667e-01, 7.59640262e-02, 7.76672550e-03, 9.91960764e-02,
          7.40223452e-02, 3.79479490e-02, 9.34391618e-02, 1. ]
      - [ 1.94994900e-02, 1.86547462e-03, 1.12632429e-02, 9.53855924e-03,
          2.63982266e-03, 3.87173961e-04, 8.72901361e-03, 2.86860727e-02,
          1.83027703e-02, 1.68948644e-03, 2.21745088e-03, 1.97106740e-03,
          1.28119392e-02, 4.57569258e-04, 6.10326976e-02, 2.21252322e-01,
          2.74541555e-03, 4.92766849e-04, 7.39150331e-04, 8.79940868e-04,
          3.87173961e-04, 3.51976341e-05, 5.27964497e-04, 7.39150331e-04,
          1.44662280e-02, 1.05592899e-03, 1.44310296e-03, 2.00626510e-03,
          3.07979304e-02, 9.15138517e-04, 1.32519096e-01, 1.04536973e-01,
          1.14744287e-02, 1.30231248e-03, 5.66681894e-03, 2.00626510e-03,
          7.03952683e-04, 7.03952683e-05, 1.79507933e-03, 2.00626510e-03,
          1.72468403e-03, 2.46383424e-04, 8.09545571e-04, 4.22371610e-04,
          1.47830066e-03, 1.75988171e-04, 4.32930887e-03, 2.92140362e-03,
          8.83460604e-03, 8.79940868e-04, 1.61909114e-03, 8.79940868e-04,
          3.87173961e-04, 3.51976341e-05, 9.15138517e-04, 6.33557444e-04,
          5.86040616e-02, 3.55496095e-03, 3.87173984e-03, 2.67502014e-03,
          1.33223042e-01, 1.83027703e-03, 2.27939874e-01, 8.72901306e-02,
          2.25264858e-03, 4.92766849e-04, 1.33751007e-03, 5.63162146e-04,
          4.57569258e-04, 3.51976341e-05, 7.39150331e-04, 1.02073140e-03,
          1.05592899e-03, 1.40790537e-04, 1.40790537e-04, 7.03952683e-05,
          1.02073140e-03, 3.51976341e-05, 2.71021784e-03, 2.28784629e-03,
          3.16778722e-04, 3.51976341e-05, 1.05592902e-04, 0.,
          1.05592902e-04, 3.51976341e-05, 1.05592902e-04, 0.,
          5.27964497e-04, 3.51976341e-05, 0., 3.51976341e-05,
          8.09545571e-04, 3.51976341e-05, 1.83027703e-03, 1.75988174e-03,
          8.62342026e-03, 5.98359795e-04, 1.86547462e-03, 6.68755034e-04,
          8.09545571e-04, 0., 1.19671959e-03, 7.03952683e-04,
          1.37270777e-03, 1.05592902e-04, 1.75988171e-04, 2.11185805e-04,
          1.75988174e-03, 1.40790537e-04, 3.16778710e-03, 1.79507933e-03,
          3.12203020e-02, 7.39150331e-04, 2.56942725e-03, 9.85533698e-04,
          1.12632429e-03, 1.05592902e-04, 8.79940868e-04, 2.14705570e-03,
          1.61873922e-01, 2.49903207e-03, 2.39343918e-03, 1.83027703e-03,
          9.95741040e-02, 1.79507933e-03, 8.52134749e-02, 5.54714724e-02,
          1.67540740e-02, 1.37270773e-02, 2.11185799e-03, 5.79705052e-02,
          9.85533698e-04, 4.57569258e-04, 1.72468403e-03, 1.39382631e-01,
          9.85533744e-03, 3.09739169e-03, 7.74347922e-04, 5.56122605e-03,
          2.49903207e-03, 9.85533698e-04, 5.31484280e-03, 2.23469779e-01,
          1.61909114e-03, 9.15138517e-04, 3.16778722e-04, 2.67502014e-03,
          7.03952683e-05, 7.03952683e-05, 3.51976341e-05, 1.72468403e-03,
          2.78061302e-03, 1.23191718e-03, 2.11185805e-04, 3.20298481e-03,
          1.72468403e-03, 8.09545571e-04, 3.83654214e-03, 7.72588104e-02,
          2.28784629e-03, 1.86547462e-03, 4.92766849e-04, 4.11812309e-03,
          1.75988171e-04, 3.51976341e-05, 3.16778722e-04, 2.56942725e-03,
          4.22371610e-04, 1.75988171e-04, 1.40790537e-04, 5.27964497e-04,
          7.03952683e-05, 3.51976341e-04, 7.39150331e-04, 8.44743196e-03,
          2.35824147e-03, 1.79507933e-03, 7.03952683e-05, 3.23818228e-03,
          1.40790537e-04, 1.05592902e-04, 7.03952683e-05, 1.72468403e-03,
          5.27964532e-03, 3.06219421e-03, 8.09545571e-04, 4.85727331e-03,
          3.48456576e-03, 1.86547462e-03, 1.10872546e-02, 1.00242861e-01,
          1.18264053e-02, 2.97420006e-02, 1.90067221e-03, 1.24142058e-01,
          8.09545571e-04, 9.85533698e-04, 1.65428885e-03, 9.03171301e-02,
          2.00626510e-03, 1.68948644e-03, 2.81581073e-04, 3.55496095e-03,
          1.09112670e-03, 9.50336107e-04, 2.39343918e-03, 7.89482966e-02,
          5.63162146e-04, 1.16152188e-03, 7.03952683e-05, 2.78061302e-03,
          7.03952683e-05, 3.51976341e-05, 3.51976341e-05, 1.61909114e-03,
          1.02073140e-03, 7.74347922e-04, 3.16778722e-04, 1.90067221e-03,
          7.39150331e-04, 1.61909114e-03, 1.86547462e-03, 3.98085229e-02,
          6.06103241e-02, 1.21678218e-01, 3.94213479e-03, 2.14001611e-01,
          3.23818228e-03, 1.75988174e-03, 2.88620591e-03, 9.10914764e-02,
          4.89247125e-03, 3.80134443e-03, 7.39150331e-04, 1.19671952e-02,
          2.78061302e-03, 1.65428885e-03, 5.52602857e-03, 1.00383654e-01,
          2.03899890e-01, 9.46816355e-02, 2.46383436e-03, 8.86980370e-02,
          1.86547462e-03, 1.75988174e-03, 2.07666052e-03, 5.42395525e-02,
          2.34944209e-01, 7.89130926e-02, 9.11618769e-03, 9.91517380e-02,
          7.90890828e-02, 3.89637798e-02, 9.95741040e-02, 1. ]
      - [ 2.24656314e-02, 2.49618129e-03, 1.06180841e-02, 9.16508306e-03,
          2.79423269e-03, 2.98051484e-04, 1.03572886e-02, 3.37543301e-02,
          2.13479381e-02, 1.15494954e-03, 2.12361687e-03, 2.57069408e-03,
          1.41201895e-02, 8.56898027e-04, 6.91851974e-02, 2.77225137e-01,
          3.05502769e-03, 4.47077211e-04, 6.70615816e-04, 7.82385119e-04,
          2.60795059e-04, 0., 6.70615816e-04, 5.58846514e-04,
          1.70261916e-02, 1.11769303e-03, 1.90007826e-03, 2.19812966e-03,
          3.63622792e-02, 1.15494954e-03, 1.62438065e-01, 1.18512720e-01,
          1.09906485e-02, 7.45128724e-04, 6.40810700e-03, 1.90007826e-03,
          9.31410876e-04, 2.98051484e-04, 2.34715547e-03, 1.93733466e-03,
          2.12361687e-03, 1.86282181e-04, 4.47077211e-04, 3.35307908e-04,
          2.04910384e-03, 7.45128709e-05, 4.99236258e-03, 3.27856629e-03,
          1.11769307e-02, 1.34123163e-03, 2.12361687e-03, 7.07872270e-04,
          7.07872270e-04, 3.72564355e-05, 6.70615816e-04, 6.33359421e-04,
          6.89989179e-02, 2.42166827e-03, 4.95510595e-03, 2.98051490e-03,
          1.59457549e-01, 2.12361687e-03, 2.49655381e-01, 9.48921442e-02,
          2.49618129e-03, 2.60795059e-04, 7.82385119e-04, 4.47077211e-04,
          4.09820786e-04, 3.72564355e-05, 1.04318024e-03, 1.30397524e-03,
          1.04318024e-03, 7.45128709e-05, 1.49025742e-04, 3.72564355e-05,
          7.07872270e-04, 3.72564355e-05, 3.57661769e-03, 2.57069408e-03,
          4.47077211e-04, 3.72564355e-05, 2.23538605e-04, 0.,
          3.72564355e-05, 0., 3.72564355e-05, 1.11769303e-04,
          5.96102967e-04, 0., 1.11769303e-04, 0., 7.45128724e-04,
          2.23538605e-04, 2.68246327e-03, 2.75697629e-03, 1.01710064e-02,
          7.82385119e-04, 1.97459105e-03, 1.04318024e-03, 1.00592372e-03,
          0., 1.26671884e-03, 9.68667329e-04, 1.75105245e-03, 0.,
          2.60795059e-04, 1.86282181e-04, 2.19812966e-03, 0.,
          2.86874548e-03, 2.27264245e-03, 3.78525369e-02, 4.47077211e-04,
          2.45892466e-03, 1.00592372e-03, 8.94154422e-04, 1.11769303e-04,
          1.37848814e-03, 2.75697629e-03, 1.94404081e-01, 2.57069408e-03,
          3.24130990e-03, 1.71379605e-03, 1.09235868e-01, 1.86282175e-03,
          9.72765535e-02, 6.00946322e-02, 1.94106027e-02, 1.41947018e-02,
          1.75105245e-03, 6.06534779e-02, 9.31410876e-04, 5.96102967e-04,
          1.82556536e-03, 1.64375395e-01, 1.36731118e-02, 3.57661769e-03,
          7.45128724e-04, 6.78067142e-03, 3.01777129e-03, 1.26671884e-03,
          5.55120874e-03, 2.63589293e-01, 1.26671884e-03, 9.31410876e-04,
          2.23538605e-04, 2.64520687e-03, 1.11769303e-04, 7.45128709e-05,
          1.49025742e-04, 2.57069408e-03, 2.75697629e-03, 1.45300094e-03,
          1.86282181e-04, 3.50210490e-03, 2.38441187e-03, 1.04318024e-03,
          3.68838711e-03, 8.17406178e-02, 2.08636047e-03, 2.42166827e-03,
          4.47077211e-04, 3.94918211e-03, 1.11769303e-04, 1.11769303e-04,
          2.98051484e-04, 2.60795048e-03, 7.82385119e-04, 2.98051484e-04,
          3.72564362e-04, 6.70615816e-04, 2.23538605e-04, 1.86282181e-04,
          9.31410876e-04, 7.89836422e-03, 2.42166827e-03, 1.82556536e-03,
          1.11769303e-04, 3.12954048e-03, 3.72564355e-05, 1.86282181e-04,
          1.86282181e-04, 2.01184745e-03, 6.96695363e-03, 3.27856629e-03,
          7.45128724e-04, 6.33359421e-03, 4.09820769e-03, 1.30397524e-03,
          1.08788796e-02, 9.94001701e-02, 1.38221374e-02, 3.20777893e-02,
          1.78830884e-03, 1.13557614e-01, 8.56898027e-04, 7.45128724e-04,
          1.93733466e-03, 9.16135758e-02, 2.79423269e-03, 1.90007826e-03,
          2.98051484e-04, 3.76289990e-03, 6.70615816e-04, 5.58846514e-04,
          2.90600187e-03, 7.84993097e-02, 6.70615816e-04, 1.11769303e-03,
          7.45128709e-05, 2.01184745e-03, 7.45128709e-05, 2.23538605e-04,
          3.72564355e-05, 1.56477024e-03, 1.22946233e-03, 9.68667329e-04,
          2.60795059e-04, 1.63928315e-03, 7.82385119e-04, 1.78830884e-03,
          1.75105245e-03, 4.28821556e-02, 6.77694529e-02, 1.45784438e-01,
          4.95510595e-03, 2.06437916e-01, 2.83148908e-03, 2.01184745e-03,
          2.86874548e-03, 8.84467810e-02, 4.73156711e-03, 3.20405350e-03,
          7.45128724e-04, 1.14377253e-02, 3.09228408e-03, 1.52751384e-03,
          6.18456816e-03, 9.64569077e-02, 2.46749371e-01, 1.15047872e-01,
          3.12954048e-03, 9.12037566e-02, 3.72564350e-03, 2.60795048e-03,
          2.19812966e-03, 5.84180914e-02, 2.92313993e-01, 8.51682127e-02,
          9.64941643e-03, 1.01933606e-01, 9.25449878e-02, 4.70176227e-02,
          1.09273128e-01, 1. ]
      - [ 2.55402736e-02, 2.80065206e-03, 1.40450606e-02, 1.15788151e-02,
          3.00965598e-03, 4.18007781e-04, 1.10354051e-02, 4.04213518e-02,
          2.59164814e-02, 2.46624579e-03, 2.88425363e-03, 2.21544108e-03,
          1.65531076e-02, 4.59808536e-04, 7.79166445e-02, 3.28261495e-01,
          3.21865990e-03, 4.18007781e-04, 1.17042172e-03, 1.00321858e-03,
          3.34406213e-04, 8.36015533e-05, 8.77816288e-04, 7.52413995e-04,
          2.04405803e-02, 1.25402329e-03, 2.04823795e-03, 2.34084344e-03,
          4.25113887e-02, 7.52413995e-04, 1.92910582e-01, 1.26698151e-01,
          1.66367088e-02, 1.04501937e-03, 7.52413971e-03, 2.21544108e-03,
          1.25402329e-03, 1.25402323e-04, 1.92283571e-03, 3.05145676e-03,
          2.54984736e-03, 1.67203107e-04, 5.01609291e-04, 3.34406213e-04,
          1.37942564e-03, 8.36015533e-05, 5.05789416e-03, 2.84245284e-03,
          1.32926470e-02, 1.21222250e-03, 2.25724187e-03, 1.04501937e-03,
          6.27011643e-04, 0., 7.10613211e-04, 9.61417856e-04,
          7.86690637e-02, 2.80065206e-03, 5.22509729e-03, 2.92605441e-03,
          1.91781968e-01, 2.75885127e-03, 2.93525040e-01, 9.61835906e-02,
          3.30226147e-03, 1.25402323e-04, 8.36015563e-04, 6.68812427e-04,
          3.34406213e-04, 4.18007767e-05, 8.36015563e-04, 9.61417856e-04,
          1.50482799e-03, 8.36015533e-05, 2.92605429e-04, 2.09003891e-04,
          9.61417856e-04, 4.18007767e-05, 3.46946437e-03, 3.59486672e-03,
          5.43410075e-04, 4.18007767e-05, 3.34406213e-04, 0., 0.,
          4.18007767e-05, 4.18007767e-05, 1.25402323e-04, 5.01609291e-04,
          2.09003891e-04, 4.18007767e-05, 4.18007767e-05, 8.77816288e-04,
          2.50804645e-04, 2.50804657e-03, 2.54984736e-03, 1.27074365e-02,
          7.10613211e-04, 2.13183952e-03, 8.36015563e-04, 9.19617072e-04,
          1.67203107e-04, 1.46302721e-03, 7.94214779e-04, 2.09003873e-03,
          1.25402323e-04, 1.25402323e-04, 2.09003891e-04, 2.13183952e-03,
          8.36015533e-05, 4.26367903e-03, 2.42444500e-03, 4.75274846e-02,
          1.08682015e-03, 2.96785519e-03, 1.33762485e-03, 7.94214779e-04,
          1.67203107e-04, 1.08682015e-03, 3.17685911e-03, 2.28441238e-01,
          1.75563258e-03, 3.21865990e-03, 2.67524971e-03, 1.26656353e-01,
          3.05145676e-03, 9.94022489e-02, 6.60870299e-02, 2.82573253e-02,
          1.60932988e-02, 3.00965598e-03, 6.91384822e-02, 1.12862093e-03,
          7.52413995e-04, 2.25724187e-03, 2.04154998e-01, 1.44212684e-02,
          3.88747221e-03, 9.61417856e-04, 6.68812450e-03, 3.26046068e-03,
          1.37942564e-03, 5.89390937e-03, 3.04142445e-01, 1.17042172e-03,
          1.25402329e-03, 8.36015533e-05, 3.05145676e-03, 1.25402323e-04,
          0., 1.67203107e-04, 3.09325755e-03, 3.88747221e-03,
          1.63023034e-03, 1.67203107e-04, 4.18007746e-03, 2.63344892e-03,
          1.12862093e-03, 3.88747221e-03, 8.47719759e-02, 2.59164814e-03,
          2.42444500e-03, 4.18007781e-04, 5.18329628e-03, 8.36015533e-05,
          2.50804645e-04, 2.50804645e-04, 2.29904265e-03, 7.94214779e-04,
          2.50804645e-04, 3.76206997e-04, 9.19617072e-04, 2.50804645e-04,
          1.25402323e-04, 1.08682015e-03, 8.61096010e-03, 2.92605441e-03,
          2.25724187e-03, 2.09003891e-04, 3.13505833e-03, 1.67203107e-04,
          4.18007767e-05, 1.67203107e-04, 2.21544108e-03, 6.77172560e-03,
          3.63666750e-03, 7.10613211e-04, 6.64632348e-03, 4.47268318e-03,
          2.04823795e-03, 1.16624171e-02, 9.91514400e-02, 1.64277051e-02,
          3.64502780e-02, 2.04823795e-03, 1.42624244e-01, 1.21222250e-03,
          1.37942564e-03, 1.96463661e-03, 1.04919948e-01, 3.67846829e-03,
          2.46624579e-03, 2.50804645e-04, 3.09325755e-03, 1.33762485e-03,
          1.00321858e-03, 2.88425363e-03, 8.91610533e-02, 5.85210859e-04,
          9.61417856e-04, 0., 2.13183952e-03, 1.25402323e-04,
          1.25402323e-04, 4.18007767e-05, 2.29904265e-03, 1.33762485e-03,
          1.17042172e-03, 2.92605429e-04, 1.58842956e-03, 9.61417856e-04,
          1.96463661e-03, 2.00643716e-03, 4.71512750e-02, 8.05082992e-02,
          1.71968400e-01, 4.89069102e-03, 2.29068249e-01, 3.09325755e-03,
          2.38264422e-03, 3.38586280e-03, 9.69778001e-02, 6.64632348e-03,
          3.67846829e-03, 7.10613211e-04, 1.13698114e-02, 3.34406225e-03,
          2.00643716e-03, 6.14471408e-03, 1.04125738e-01, 3.20110351e-01,
          1.31672442e-01, 2.88425363e-03, 9.97784510e-02, 3.55306594e-03,
          2.92605441e-03, 3.21865990e-03, 6.71320483e-02, 3.36454451e-01,
          9.57655758e-02, 1.04083931e-02, 1.07386194e-01, 9.66851935e-02,
          4.97429259e-02, 1.08807422e-01, 1. ]
      - [ 2.71557886e-02, 3.68140684e-03, 1.44657632e-02, 1.25167836e-02,
          3.85464961e-03, 4.76417365e-04, 1.21269869e-02, 4.58226874e-02,
          2.65494399e-02, 1.64580543e-03, 3.37823224e-03, 2.51201889e-03,
          1.87102091e-02, 4.33106674e-04, 8.53220150e-02, 3.33535463e-01,
          3.20498948e-03, 7.79592025e-04, 1.51587336e-03, 1.08276668e-03,
          4.76417365e-04, 4.33106688e-05, 8.22902715e-04, 7.36281392e-04,
          1.89267620e-02, 9.96145420e-04, 2.29546544e-03, 2.77188281e-03,
          4.44800556e-02, 8.22902715e-04, 2.08367631e-01, 1.42925203e-01,
          1.42492102e-02, 1.16938807e-03, 5.37052285e-03, 1.99229084e-03,
          1.25600945e-03, 3.89796012e-04, 1.81904808e-03, 2.64195073e-03,
          2.16553337e-03, 2.59864028e-04, 6.49660011e-04, 2.59864028e-04,
          1.68911612e-03, 1.73242675e-04, 4.28775605e-03, 2.98843626e-03,
          1.39027247e-02, 9.52834729e-04, 2.12222268e-03, 9.96145420e-04,
          8.22902715e-04, 2.16553337e-04, 9.52834729e-04, 1.29932002e-03,
          8.98263305e-02, 3.11836810e-03, 4.93741641e-03, 2.90181488e-03,
          2.07284868e-01, 2.98843626e-03, 2.69652218e-01, 9.60630625e-02,
          2.98843626e-03, 3.89796012e-04, 9.09524038e-04, 7.36281392e-04,
          4.76417365e-04, 1.29932014e-04, 9.09524038e-04, 9.09524038e-04,
          1.34263071e-03, 1.73242675e-04, 2.16553337e-04, 8.66213377e-05,
          1.34263071e-03, 8.66213377e-05, 3.11836810e-03, 3.37823224e-03,
          6.06349378e-04, 8.66213377e-05, 1.73242675e-04, 4.33106688e-05,
          4.33106688e-05, 1.29932014e-04, 4.33106688e-05, 1.73242675e-04,
          9.52834729e-04, 4.33106688e-05, 4.33106688e-05, 4.33106688e-05,
          1.47256278e-03, 1.73242675e-04, 3.07505741e-03, 2.33877613e-03,
          1.42058991e-02, 5.19728055e-04, 2.38208682e-03, 1.08276668e-03,
          6.92970701e-04, 4.33106688e-05, 1.16938807e-03, 1.29932002e-03,
          2.51201889e-03, 1.73242675e-04, 2.16553337e-04, 2.59864028e-04,
          2.46870820e-03, 4.33106688e-05, 3.59478546e-03, 3.07505741e-03,
          4.77716662e-02, 1.12607738e-03, 2.55532935e-03, 1.16938807e-03,
          8.22902715e-04, 1.73242675e-04, 1.42925209e-03, 3.89796030e-03,
          2.73810059e-01, 3.11836810e-03, 3.20498948e-03, 2.20884406e-03,
          1.22395948e-01, 2.25215475e-03, 1.00957170e-01, 6.37533069e-02,
          2.74589639e-02, 1.82771031e-02, 1.77573739e-03, 7.72229210e-02,
          1.16938807e-03, 6.49660011e-04, 2.20884406e-03, 2.49642700e-01,
          1.63714327e-02, 3.50816408e-03, 5.19728055e-04, 6.19342551e-03,
          3.29161086e-03, 2.12222268e-03, 6.45328965e-03, 3.11533630e-01,
          1.86235877e-03, 1.47256278e-03, 1.73242675e-04, 3.33492155e-03,
          1.73242675e-04, 8.66213377e-05, 8.66213377e-05, 2.81519350e-03,
          3.46485339e-03, 1.42925209e-03, 4.33106674e-04, 3.59478546e-03,
          2.55532935e-03, 1.12607738e-03, 4.89410572e-03, 8.73576179e-02,
          2.55532935e-03, 1.60249474e-03, 4.76417365e-04, 3.94127099e-03,
          4.33106688e-05, 4.33106688e-05, 1.29932014e-04, 3.59478546e-03,
          8.22902715e-04, 2.59864028e-04, 4.76417365e-04, 8.66213348e-04,
          1.29932014e-04, 1.73242675e-04, 7.79592025e-04, 1.00047644e-02,
          3.07505741e-03, 2.72857212e-03, 2.59864028e-04, 3.07505741e-03,
          0., 1.73242675e-04, 3.03174689e-04, 1.60249474e-03,
          6.71315379e-03, 4.54762019e-03, 7.36281392e-04, 6.02018274e-03,
          3.94127099e-03, 1.86235877e-03, 1.13040842e-02, 9.65394825e-02,
          1.76274423e-02, 4.04088534e-02, 2.03560153e-03, 1.68218642e-01,
          1.25600945e-03, 8.66213348e-04, 2.90181488e-03, 1.17588468e-01,
          3.11836810e-03, 2.51201889e-03, 3.46485351e-04, 4.07120306e-03,
          1.29932002e-03, 7.36281392e-04, 4.33106674e-03, 8.43258724e-02,
          9.96145420e-04, 8.66213348e-04, 8.66213377e-05, 2.55532935e-03,
          8.66213377e-05, 4.33106688e-05, 0., 2.38208682e-03,
          1.55918405e-03, 1.08276668e-03, 3.03174689e-04, 2.46870820e-03,
          1.25600945e-03, 2.12222268e-03, 1.86235877e-03, 4.67322133e-02,
          8.93932208e-02, 1.77183941e-01, 4.41768812e-03, 2.17073068e-01,
          2.51201889e-03, 2.81519350e-03, 3.55147477e-03, 9.50236097e-02,
          7.40612438e-03, 4.24444536e-03, 6.49660011e-04, 1.13473954e-02,
          4.80748434e-03, 1.90566946e-03, 5.71700837e-03, 9.81852859e-02,
          3.42977196e-01, 1.36341989e-01, 3.59478546e-03, 1.01173721e-01,
          4.20113467e-03, 2.68526142e-03, 2.90181488e-03, 6.79544359e-02,
          3.55797142e-01, 1.00653991e-01, 1.08709782e-02, 1.06630869e-01,
          9.40707698e-02, 4.98072691e-02, 1.02039933e-01, 1. ]
      - [ 2.75840499e-02, 3.30829760e-03, 1.56920608e-02, 1.30543634e-02,
          3.88948503e-03, 4.02360514e-04, 1.21602295e-02, 4.61820476e-02,
          2.97299717e-02, 1.69885554e-03, 2.23533623e-03, 2.90593714e-03,
          1.93133056e-02, 6.70600857e-04, 9.22299773e-02, 3.69411677e-01,
          2.99535063e-03, 4.47067257e-04, 1.34120171e-03, 9.83548001e-04,
          2.23533629e-04, 4.47067250e-05, 1.07296137e-03, 1.11766811e-03,
          2.26216037e-02, 2.01180251e-03, 2.59298994e-03, 3.53183132e-03,
          4.75679561e-02, 1.43061520e-03, 2.09138066e-01, 1.53969958e-01,
          1.72567964e-02, 9.83548001e-04, 8.89663864e-03, 1.87768240e-03,
          1.29649497e-03, 3.12947086e-04, 2.05650926e-03, 2.59298994e-03,
          2.63769669e-03, 4.02360514e-04, 4.02360514e-04, 1.78826900e-04,
          2.23533623e-03, 4.47067250e-05, 4.60479269e-03, 3.35300434e-03,
          1.46638062e-02, 7.60014344e-04, 2.59298994e-03, 9.38841200e-04,
          7.15307600e-04, 8.94134500e-05, 1.60944206e-03, 1.07296137e-03,
          9.18276161e-02, 3.44241783e-03, 5.85658103e-03, 3.97889875e-03,
          2.16514662e-01, 2.77181691e-03, 2.67390937e-01, 9.72818360e-02,
          3.71065829e-03, 1.34120171e-04, 8.04721029e-04, 4.47067257e-04,
          4.47067257e-04, 0., 1.02825463e-03, 1.83297577e-03,
          1.74356229e-03, 8.94134500e-05, 2.23533629e-04, 1.34120171e-04,
          1.52002869e-03, 0., 3.88948503e-03, 4.11301851e-03,
          5.36480686e-04, 4.47067250e-05, 4.02360514e-04, 0.,
          4.47067250e-05, 8.94134500e-05, 8.94134500e-05, 1.34120171e-04,
          7.15307600e-04, 8.94134500e-05, 4.47067250e-05, 8.94134500e-05,
          8.49427772e-04, 2.68240343e-04, 2.72711017e-03, 2.36945646e-03,
          1.30543634e-02, 3.12947086e-04, 1.87768240e-03, 7.15307600e-04,
          9.83548001e-04, 4.47067250e-05, 1.16237486e-03, 1.47532194e-03,
          2.77181691e-03, 8.94134500e-05, 4.47067257e-04, 3.57653800e-04,
          2.68240343e-03, 8.94134500e-05, 4.02360503e-03, 2.45886995e-03,
          5.31562977e-02, 9.83548001e-04, 2.41416320e-03, 1.20708160e-03,
          9.83548001e-04, 3.12947086e-04, 1.20708160e-03, 3.80007154e-03,
          2.97836214e-01, 3.39771109e-03, 3.53183132e-03, 2.59298994e-03,
          1.34388417e-01, 3.08476412e-03, 1.01707801e-01, 6.88930601e-02,
          2.74052229e-02, 1.87768247e-02, 1.65414880e-03, 7.93991461e-02,
          1.52002869e-03, 6.70600857e-04, 3.21888411e-03, 2.74320453e-01,
          1.70332622e-02, 4.20243200e-03, 7.60014344e-04, 6.70600869e-03,
          3.39771109e-03, 1.60944206e-03, 6.30364800e-03, 3.18490714e-01,
          1.92238914e-03, 1.34120171e-03, 1.34120171e-04, 2.45886995e-03,
          2.23533629e-04, 8.94134500e-05, 1.34120171e-04, 3.62124480e-03,
          4.60479269e-03, 1.52002869e-03, 1.78826900e-04, 3.75536480e-03,
          2.90593714e-03, 1.25178834e-03, 3.80007154e-03, 9.03522894e-02,
          2.41416320e-03, 2.36945646e-03, 3.12947086e-04, 4.51537920e-03,
          2.23533629e-04, 1.34120171e-04, 2.23533629e-04, 2.50357669e-03,
          7.15307600e-04, 1.78826900e-04, 1.78826900e-04, 8.04721029e-04,
          1.78826900e-04, 2.23533629e-04, 1.02825463e-03, 8.85193143e-03,
          3.71065829e-03, 3.44241783e-03, 2.23533629e-04, 3.30829760e-03,
          1.34120171e-04, 4.47067250e-05, 1.34120171e-04, 2.59298994e-03,
          9.65665281e-03, 3.48712457e-03, 1.02825463e-03, 6.75071543e-03,
          3.30829760e-03, 2.23533623e-03, 1.18025756e-02, 9.88465697e-02,
          1.94921326e-02, 3.92525047e-02, 1.78826903e-03, 1.68589056e-01,
          1.43061520e-03, 1.29649497e-03, 2.68240343e-03, 1.19188130e-01,
          3.57653806e-03, 2.41416320e-03, 3.57653800e-04, 4.11301851e-03,
          1.43061520e-03, 1.02825463e-03, 3.93419201e-03, 8.72675255e-02,
          7.60014344e-04, 1.25178834e-03, 8.94134500e-05, 2.59298994e-03,
          8.94134500e-05, 1.78826900e-04, 1.78826900e-04, 2.19062949e-03,
          1.69885554e-03, 1.38590846e-03, 2.68240343e-04, 1.69885554e-03,
          1.34120171e-03, 2.45886995e-03, 1.52002869e-03, 4.90879826e-02,
          9.23640952e-02, 1.67873755e-01, 5.54363383e-03, 2.09719241e-01,
          3.57653806e-03, 2.28004297e-03, 3.26359086e-03, 9.02628750e-02,
          7.19778286e-03, 4.11301851e-03, 6.25894172e-04, 9.70135909e-03,
          3.53183132e-03, 1.56473543e-03, 5.67775406e-03, 9.50464979e-02,
          3.74150574e-01, 1.42122686e-01, 2.50357669e-03, 9.69688892e-02,
          3.71065829e-03, 2.41416320e-03, 3.44241783e-03, 7.00554401e-02,
          3.64449233e-01, 9.90253985e-02, 1.19366953e-02, 1.05865523e-01,
          1.03049003e-01, 5.14574423e-02, 1.10291488e-01, 1. ]
      - [ 4.45845686e-02, 4.52522235e-03, 2.82640941e-02, 2.08456963e-02,
          4.82195849e-03, 2.96735903e-04, 1.81008894e-02, 7.55192861e-02,
          4.93323430e-02, 2.07715132e-03, 3.18991090e-03, 4.30267071e-03,
          3.18991095e-02, 1.03857566e-03, 1.39391690e-01, 5.16691387e-01,
          5.86053403e-03, 1.11275958e-03, 1.26112765e-03, 1.55786355e-03,
          2.96735903e-04, 0., 1.33531156e-03, 1.40949548e-03,
          3.90207730e-02, 1.78041542e-03, 2.67062313e-03, 5.04451059e-03,
          8.59792307e-02, 1.26112765e-03, 3.77893180e-01, 1.89391688e-01,
          2.64094956e-02, 1.03857566e-03, 1.56528186e-02, 2.89317500e-03,
          1.63204747e-03, 7.41839758e-05, 3.70919891e-03, 2.81899096e-03,
          2.44807126e-03, 2.96735903e-04, 4.45103855e-04, 2.96735903e-04,
          3.48664680e-03, 0., 6.23145420e-03, 3.70919891e-03,
          1.86943617e-02, 9.64391686e-04, 3.04154307e-03, 1.55786355e-03,
          4.45103855e-04, 7.41839758e-05, 1.18694361e-03, 1.48367952e-03,
          1.29525214e-01, 5.41543029e-03, 6.08308613e-03, 4.00593458e-03,
          3.66543025e-01, 3.85756674e-03, 6.01483703e-01, 1.50667652e-01,
          4.74777445e-03, 1.48367952e-04, 8.16023734e-04, 9.64391686e-04,
          5.19287831e-04, 0., 9.64391686e-04, 1.26112765e-03,
          2.74480716e-03, 7.41839758e-05, 1.48367952e-04, 0.,
          1.85459945e-03, 2.22551927e-04, 4.22848668e-03, 4.82195849e-03,
          2.96735903e-04, 0., 2.22551927e-04, 7.41839758e-05, 0.,
          7.41839758e-05, 0., 3.70919879e-04, 5.19287831e-04, 0.,
          7.41839758e-05, 7.41839758e-05, 1.26112765e-03, 0.,
          3.11572710e-03, 2.37388723e-03, 1.82492584e-02, 5.93471806e-04,
          3.11572710e-03, 9.64391686e-04, 1.40949548e-03, 7.41839758e-05,
          1.48367952e-03, 1.78041542e-03, 5.48961433e-03, 0.,
          2.22551927e-04, 7.41839758e-05, 2.52225529e-03, 7.41839758e-05,
          4.08011861e-03, 3.85756674e-03, 7.15875402e-02, 1.85459945e-03,
          3.33827897e-03, 1.18694361e-03, 1.26112765e-03, 3.70919879e-04,
          2.00296729e-03, 7.04747764e-03, 4.57937688e-01, 5.19287819e-03,
          2.74480716e-03, 3.41246277e-03, 1.56528190e-01, 2.96735903e-03,
          1.24258161e-01, 9.78486612e-02, 4.60682474e-02, 3.37537080e-02,
          3.26409494e-03, 1.31973296e-01, 2.44807126e-03, 5.19287831e-04,
          5.11869416e-03, 5.11943638e-01, 2.35905051e-02, 4.97032655e-03,
          8.90207710e-04, 8.30860529e-03, 4.89614252e-03, 2.15133536e-03,
          7.64094945e-03, 3.73516321e-01, 2.15133536e-03, 1.63204747e-03,
          2.96735903e-04, 4.37685475e-03, 0., 7.41839758e-05,
          7.41839758e-05, 5.71216596e-03, 5.34124626e-03, 1.70623139e-03,
          7.41839758e-05, 4.37685475e-03, 2.37388723e-03, 2.22551916e-03,
          3.33827897e-03, 9.84421372e-02, 3.78338271e-03, 2.44807126e-03,
          8.90207710e-04, 4.45103832e-03, 2.96735903e-04, 0.,
          2.22551927e-04, 3.11572710e-03, 7.41839758e-04, 4.45103855e-04,
          7.41839758e-04, 5.93471806e-04, 2.96735903e-04, 3.70919879e-04,
          9.64391686e-04, 1.00890212e-02, 3.78338271e-03, 4.00593458e-03,
          0., 4.08011861e-03, 7.41839758e-05, 0., 1.48367952e-04,
          4.08011861e-03, 9.56973247e-03, 4.45103832e-03, 1.03857566e-03,
          6.15727017e-03, 4.00593458e-03, 2.59643910e-03, 1.44658750e-02,
          1.19732939e-01, 3.52373868e-02, 7.91543052e-02, 3.04154307e-03,
          4.33605343e-01, 1.85459945e-03, 1.26112765e-03, 3.41246277e-03,
          1.78412467e-01, 3.93175054e-03, 1.92878337e-03, 2.22551927e-04,
          3.41246277e-03, 2.81899096e-03, 8.16023734e-04, 3.93175054e-03,
          9.17655751e-02, 5.19287831e-04, 1.33531156e-03, 0.,
          3.33827897e-03, 0., 2.22551927e-04, 1.48367952e-04,
          2.59643910e-03, 2.22551916e-03, 1.11275958e-03, 5.19287831e-04,
          2.15133536e-03, 1.40949548e-03, 3.48664680e-03, 2.74480716e-03,
          6.50593489e-02, 1.21587537e-01, 2.79228479e-01, 4.37685475e-03,
          5.18323421e-01, 3.11572710e-03, 2.44807126e-03, 3.93175054e-03,
          1.28041536e-01, 7.04747764e-03, 3.78338271e-03, 5.93471806e-04,
          9.05044470e-03, 3.56083084e-03, 2.15133536e-03, 7.93768559e-03,
          9.03560817e-02, 4.89243329e-01, 1.60014838e-01, 2.29970319e-03,
          1.02225520e-01, 4.67359042e-03, 3.04154307e-03, 3.48664680e-03,
          9.77744833e-02, 3.34272981e-01, 7.92284831e-02, 8.90207663e-03,
          7.62611255e-02, 8.63501504e-02, 5.52670620e-02, 9.19881314e-02,
          1. ]
      - [ 3.59737873e-02, 3.27682006e-03, 2.35076230e-02, 1.67402774e-02,
          3.98917217e-03, 4.98646521e-04, 1.79512762e-02, 6.04787022e-02,
          4.61604223e-02, 2.63570319e-03, 2.35076225e-03, 4.13164264e-03,
          3.00612617e-02, 6.41116989e-04, 1.31998867e-01, 4.67801690e-01,
          3.98917217e-03, 7.12352223e-04, 9.97293042e-04, 7.83587398e-04,
          2.84940877e-04, 0., 7.12352223e-04, 1.42470445e-03,
          3.44778448e-02, 1.99458608e-03, 2.92064389e-03, 3.06311436e-03,
          7.79313296e-02, 1.06852828e-03, 3.52614343e-01, 1.97606504e-01,
          2.06582136e-02, 9.26057866e-04, 1.43182790e-02, 3.27682006e-03,
          1.13976351e-03, 7.12352194e-05, 2.77817366e-03, 3.13434959e-03,
          2.49323272e-03, 2.13705658e-04, 4.98646521e-04, 1.42470439e-04,
          2.20829179e-03, 1.42470439e-04, 5.84128778e-03, 3.70423147e-03,
          1.65978055e-02, 1.28223398e-03, 1.42470445e-03, 1.99458608e-03,
          5.69881755e-04, 7.12352194e-05, 1.13976351e-03, 1.70964526e-03,
          1.26371279e-01, 3.41929053e-03, 4.77275951e-03, 3.41929053e-03,
          3.42783868e-01, 2.84940889e-03, 5.66533685e-01, 1.53511897e-01,
          3.27682006e-03, 2.13705658e-04, 1.42470445e-03, 3.56176111e-04,
          6.41116989e-04, 7.12352194e-05, 9.97293042e-04, 9.97293042e-04,
          9.97293042e-04, 1.42470439e-04, 2.13705658e-04, 0.,
          1.63841003e-03, 1.42470439e-04, 3.20558483e-03, 4.84399498e-03,
          7.12352223e-04, 0., 1.42470439e-04, 0., 0., 0., 0.,
          2.13705658e-04, 7.12352223e-04, 1.42470439e-04, 7.12352194e-05,
          7.12352194e-05, 1.42470445e-03, 7.12352194e-05, 3.13434959e-03,
          2.99187913e-03, 1.58854537e-02, 2.84940877e-04, 3.41929053e-03,
          1.49593956e-03, 8.54822632e-04, 0., 1.92335097e-03,
          1.63841003e-03, 4.34534857e-03, 0., 3.56176111e-04,
          4.27411316e-04, 4.27411310e-03, 7.12352194e-05, 4.41658357e-03,
          3.34805530e-03, 5.71306460e-02, 1.13976351e-03, 2.99187913e-03,
          1.85211573e-03, 9.97293042e-04, 2.13705658e-04, 9.97293042e-04,
          5.48511185e-03, 4.08391505e-01, 3.91793717e-03, 3.13434959e-03,
          3.41929053e-03, 1.67260289e-01, 2.56446796e-03, 1.31785154e-01,
          9.81621295e-02, 4.70152460e-02, 3.32668461e-02, 2.70693842e-03,
          1.26513749e-01, 1.63841003e-03, 6.41116989e-04, 3.06311436e-03,
          4.40091193e-01, 2.57159136e-02, 4.41658357e-03, 8.54822632e-04,
          8.47699121e-03, 5.91252325e-03, 1.70964526e-03, 9.68798995e-03,
          4.27767485e-01, 2.42199749e-03, 1.13976351e-03, 7.12352194e-05,
          3.98917217e-03, 2.13705658e-04, 7.12352194e-05, 1.42470439e-04,
          5.05770044e-03, 5.69881778e-03, 1.92335097e-03, 1.42470439e-04,
          4.13164264e-03, 3.63299623e-03, 1.28223398e-03, 4.41658357e-03,
          1.06852829e-01, 2.70693842e-03, 2.56446796e-03, 3.56176111e-04,
          5.48511185e-03, 2.13705658e-04, 0., 2.84940877e-04,
          3.91793717e-03, 1.35346921e-03, 2.84940877e-04, 1.42470439e-04,
          8.54822632e-04, 1.42470439e-04, 2.84940877e-04, 1.06852828e-03,
          9.40304901e-03, 4.63028904e-03, 2.70693842e-03, 2.84940877e-04,
          4.20287810e-03, 7.12352194e-05, 7.12352194e-05, 1.42470439e-04,
          3.63299623e-03, 7.55093340e-03, 4.20287810e-03, 4.98646521e-04,
          6.55364012e-03, 4.55905404e-03, 2.42199749e-03, 1.50306309e-02,
          1.19675167e-01, 3.05599086e-02, 7.08790421e-02, 2.42199749e-03,
          3.84527713e-01, 2.42199749e-03, 1.06852828e-03, 3.63299623e-03,
          1.82433397e-01, 5.20017091e-03, 3.77546670e-03, 3.56176111e-04,
          3.84670193e-03, 1.92335097e-03, 1.28223398e-03, 4.20287810e-03,
          9.43154320e-02, 5.69881755e-04, 8.54822632e-04, 7.12352194e-05,
          2.42199749e-03, 1.42470439e-04, 0., 1.42470439e-04,
          3.06311436e-03, 1.56717480e-03, 1.35346921e-03, 4.98646521e-04,
          2.20829179e-03, 1.21099874e-03, 2.92064389e-03, 2.20829179e-03,
          5.67744710e-02, 1.06354184e-01, 2.49252036e-01, 5.84128778e-03,
          5.30702412e-01, 3.56176100e-03, 2.49323272e-03, 4.77275951e-03,
          1.37483969e-01, 8.26328527e-03, 4.55905404e-03, 7.83587398e-04,
          9.97293089e-03, 4.70152451e-03, 2.49323272e-03, 5.62758232e-03,
          9.58113670e-02, 4.09958690e-01, 1.47100732e-01, 2.49323272e-03,
          1.09132357e-01, 4.13164264e-03, 2.63570319e-03, 2.92064389e-03,
          9.64524895e-02, 3.64653081e-01, 8.22054446e-02, 7.47969793e-03,
          7.84299746e-02, 8.82604346e-02, 4.99358885e-02, 9.48140770e-02,
          1. ]
      - [ 3.53988260e-02, 3.64102214e-03, 2.20484119e-02, 1.57777630e-02,
          3.10161151e-03, 6.74263341e-04, 1.59126148e-02, 6.39201626e-02,
          4.57824804e-02, 1.48337940e-03, 3.10161151e-03, 2.89933244e-03,
          3.03418506e-02, 9.43968713e-04, 1.22783355e-01, 3.99703324e-01,
          3.64102214e-03, 4.71984356e-04, 1.41595304e-03, 8.76542355e-04,
          4.04558028e-04, 6.74263356e-05, 1.14624773e-03, 1.48337940e-03,
          3.08138356e-02, 1.07882137e-03, 2.09021638e-03, 2.56220065e-03,
          7.74054304e-02, 1.34852668e-03, 3.43537182e-01, 1.83062494e-01,
          1.83399636e-02, 1.07882137e-03, 1.15973298e-02, 2.69705337e-03,
          1.55080575e-03, 6.74263356e-05, 3.43874306e-03, 4.11300641e-03,
          2.62962701e-03, 1.34852671e-04, 1.01139501e-03, 1.34852671e-04,
          2.62962701e-03, 0., 5.59638580e-03, 3.84330121e-03,
          1.58451889e-02, 1.07882137e-03, 2.89933244e-03, 1.01139501e-03,
          6.74263341e-04, 6.74263356e-05, 1.28110033e-03, 1.75308471e-03,
          1.11388303e-01, 2.42734817e-03, 4.78726998e-03, 3.30389035e-03,
          3.30456465e-01, 3.37131671e-03, 5.72719276e-01, 1.49012208e-01,
          4.31528548e-03, 4.04558028e-04, 5.39410685e-04, 6.74263341e-04,
          4.04558028e-04, 0., 1.14624773e-03, 1.21367408e-03,
          2.09021638e-03, 6.74263356e-05, 6.74263356e-05, 0.,
          1.75308471e-03, 0., 3.50616942e-03, 3.64102214e-03,
          6.06837042e-04, 1.34852671e-04, 6.74263356e-05, 0.,
          6.74263356e-05, 6.74263356e-05, 6.74263356e-05, 1.34852671e-04,
          3.37131671e-04, 6.74263356e-05, 1.34852671e-04, 0.,
          1.28110033e-03, 1.34852671e-04, 2.76447972e-03, 2.56220065e-03,
          1.42269572e-02, 7.41689699e-04, 2.49477453e-03, 1.68565835e-03,
          1.48337940e-03, 0., 1.88793743e-03, 1.34852668e-03,
          3.16903787e-03, 0., 3.37131671e-04, 0., 1.55080575e-03,
          6.74263356e-05, 3.10161151e-03, 2.69705337e-03, 5.98071590e-02,
          1.48337940e-03, 3.70844849e-03, 1.68565835e-03, 1.01139501e-03,
          2.02279014e-04, 2.09021638e-03, 6.13579666e-03, 3.85880917e-01,
          3.91072733e-03, 2.22506910e-03, 3.43874306e-03, 1.40988469e-01,
          1.68565835e-03, 1.17726386e-01, 9.41945910e-02, 4.74007130e-02,
          2.58242860e-02, 2.83190608e-03, 1.19344614e-01, 2.35992181e-03,
          1.01139501e-03, 2.76447972e-03, 4.02130663e-01, 2.40712017e-02,
          4.04558005e-03, 5.39410685e-04, 6.81005977e-03, 4.51756455e-03,
          1.82051107e-03, 8.09116010e-03, 3.68080378e-01, 1.55080575e-03,
          1.48337940e-03, 2.02279014e-04, 3.64102214e-03, 3.37131671e-04,
          0., 6.74263356e-05, 2.96675880e-03, 5.66381216e-03,
          1.14624773e-03, 4.04558028e-04, 3.84330121e-03, 2.96675880e-03,
          1.28110033e-03, 4.31528548e-03, 1.00330390e-01, 2.69705337e-03,
          2.15764274e-03, 4.71984356e-04, 5.46153309e-03, 1.34852671e-04,
          0., 2.02279014e-04, 3.84330121e-03, 7.41689699e-04,
          3.37131671e-04, 2.02279014e-04, 7.41689699e-04, 3.37131671e-04,
          3.37131671e-04, 6.06837042e-04, 1.16647556e-02, 2.69705337e-03,
          3.03418515e-03, 6.74263356e-05, 3.84330121e-03, 1.34852671e-04,
          0., 2.69705342e-04, 2.56220065e-03, 7.55174970e-03,
          3.03418515e-03, 6.06837042e-04, 5.52895945e-03, 3.77587485e-03,
          2.76447972e-03, 1.43618099e-02, 1.14220209e-01, 3.02744247e-02,
          7.09999278e-02, 2.62962701e-03, 3.62349123e-01, 9.43968713e-04,
          1.21367408e-03, 2.15764274e-03, 1.69779509e-01, 4.71984362e-03,
          2.09021638e-03, 6.74263356e-05, 3.97815369e-03, 2.02279002e-03,
          1.41595304e-03, 3.23646422e-03, 9.57453996e-02, 4.71984356e-04,
          1.07882137e-03, 0., 1.82051107e-03, 0., 6.74263356e-05,
          6.74263356e-05, 1.75308471e-03, 1.88793743e-03, 1.28110033e-03,
          6.74263356e-05, 2.02279002e-03, 8.76542355e-04, 2.96675880e-03,
          1.88793743e-03, 5.56941517e-02, 1.05724491e-01, 2.56017804e-01,
          4.78726998e-03, 4.83379394e-01, 3.16903787e-03, 2.56220065e-03,
          2.56220065e-03, 1.30941942e-01, 6.60778070e-03, 3.37131671e-03,
          2.69705342e-04, 1.05185080e-02, 3.77587485e-03, 1.75308471e-03,
          4.98954905e-03, 1.01476632e-01, 3.53651136e-01, 1.47326544e-01,
          2.56220065e-03, 1.07140444e-01, 3.10161151e-03, 2.69705337e-03,
          3.10161151e-03, 8.77216607e-02, 3.61540020e-01, 8.27995390e-02,
          8.09116010e-03, 7.70682991e-02, 8.13161582e-02, 5.06371781e-02,
          8.98118764e-02, 1. ]
      - [ 3.67865302e-02, 3.38187604e-03, 2.09124163e-02, 1.69783980e-02,
          3.93401925e-03, 7.59196642e-04, 1.72544699e-02, 6.41176105e-02,
          4.13417108e-02, 2.00151838e-03, 3.31285829e-03, 2.20857211e-03,
          3.25074196e-02, 1.24232180e-03, 1.34101734e-01, 4.54758793e-01,
          4.34812624e-03, 6.90178771e-04, 1.24232180e-03, 1.58741116e-03,
          1.38035757e-04, 0., 8.97232443e-04, 1.79446489e-03,
          3.08509916e-02, 1.51839328e-03, 2.13955413e-03, 2.55366159e-03,
          8.33735988e-02, 1.10428606e-03, 3.64138335e-01, 1.96010768e-01,
          2.13955417e-02, 9.66250314e-04, 1.02146463e-02, 2.69169733e-03,
          1.17330393e-03, 2.07053643e-04, 3.79598327e-03, 3.58892977e-03,
          3.10580456e-03, 2.07053643e-04, 4.14107286e-04, 2.76071514e-04,
          2.48464360e-03, 0., 5.24535868e-03, 2.82973307e-03,
          1.77375954e-02, 1.24232180e-03, 2.69169733e-03, 2.00151838e-03,
          8.28214572e-04, 0., 1.38035754e-03, 1.38035754e-03,
          1.15397893e-01, 4.62419773e-03, 5.59044816e-03, 3.03678657e-03,
          3.41500461e-01, 3.51991178e-03, 5.86721003e-01, 1.54600054e-01,
          4.90026921e-03, 4.83125157e-04, 8.97232443e-04, 4.14107286e-04,
          4.14107286e-04, 1.38035757e-04, 1.44937541e-03, 8.28214572e-04,
          1.93250063e-03, 2.07053643e-04, 6.90178786e-05, 6.90178786e-05,
          1.51839328e-03, 6.90178786e-05, 4.07205475e-03, 3.24384030e-03,
          4.14107286e-04, 1.38035757e-04, 3.45089386e-04, 1.38035757e-04,
          6.90178786e-05, 6.90178786e-05, 6.90178786e-05, 2.76071514e-04,
          4.14107286e-04, 6.90178786e-05, 6.90178786e-05, 0.,
          1.58741116e-03, 6.90178786e-05, 2.48464360e-03, 2.76071508e-03,
          1.88418813e-02, 7.59196642e-04, 3.38187604e-03, 1.24232180e-03,
          1.17330393e-03, 0., 6.21160900e-04, 1.65642914e-03,
          3.86500126e-03, 0., 6.90178786e-05, 1.38035757e-04,
          2.55366159e-03, 6.90178786e-05, 3.58892977e-03, 3.31285829e-03,
          5.97004667e-02, 1.24232180e-03, 2.89875083e-03, 1.44937541e-03,
          1.03526819e-03, 1.38035757e-04, 1.10428606e-03, 6.76375208e-03,
          3.82221013e-01, 4.62419773e-03, 3.79598327e-03, 3.45089403e-03,
          1.46801025e-01, 2.48464360e-03, 1.25888616e-01, 9.47615504e-02,
          4.36883159e-02, 2.87804548e-02, 3.17482231e-03, 1.18365660e-01,
          2.00151838e-03, 8.28214572e-04, 3.03678657e-03, 4.16453868e-01,
          2.10504532e-02, 5.10732317e-03, 1.65642914e-03, 7.59196654e-03,
          4.55518020e-03, 1.31133967e-03, 9.52446740e-03, 4.00579780e-01,
          1.31133967e-03, 1.31133967e-03, 2.07053643e-04, 4.62419773e-03,
          6.90178786e-05, 0., 0., 5.10732317e-03, 4.76223370e-03,
          2.13955413e-03, 1.38035757e-04, 3.38187604e-03, 2.20857211e-03,
          1.17330393e-03, 4.55518020e-03, 1.07391819e-01, 2.82973307e-03,
          2.20857211e-03, 7.59196642e-04, 4.00303677e-03, 6.90178786e-05,
          0., 2.76071514e-04, 4.83125169e-03, 1.24232180e-03,
          6.90178786e-05, 4.14107286e-04, 1.10428606e-03, 6.21160900e-04,
          4.14107286e-04, 4.14107286e-04, 1.19400928e-02, 2.13955413e-03,
          2.41562584e-03, 4.14107286e-04, 3.93401925e-03, 6.90178786e-05,
          6.90178786e-05, 4.14107286e-04, 3.45089403e-03, 7.66098453e-03,
          4.48616222e-03, 5.52143028e-04, 5.59044816e-03, 5.45241218e-03,
          2.62267934e-03, 1.57360770e-02, 1.17813520e-01, 3.17482240e-02,
          6.81896657e-02, 2.41562584e-03, 3.41638505e-01, 2.00151838e-03,
          9.66250314e-04, 2.69169733e-03, 1.61846921e-01, 5.45241218e-03,
          2.55366159e-03, 3.45089386e-04, 2.89875083e-03, 2.34660786e-03,
          1.65642914e-03, 3.58892977e-03, 8.95852074e-02, 8.28214572e-04,
          1.38035754e-03, 6.90178786e-05, 3.51991178e-03, 2.07053643e-04,
          6.90178786e-05, 0., 2.13955413e-03, 1.44937541e-03,
          1.24232180e-03, 1.38035757e-04, 2.41562584e-03, 1.38035754e-03,
          3.51991178e-03, 2.20857211e-03, 6.02526069e-02, 1.12982266e-01,
          2.57781774e-01, 4.55518020e-03, 4.62902904e-01, 3.93401925e-03,
          2.82973307e-03, 2.82973307e-03, 1.22092627e-01, 8.00607353e-03,
          4.27910825e-03, 3.45089386e-04, 9.24839545e-03, 3.03678657e-03,
          2.07053637e-03, 5.93553763e-03, 8.77907425e-02, 3.87121290e-01,
          1.49768800e-01, 2.69169733e-03, 9.86265466e-02, 3.38187604e-03,
          2.76071508e-03, 3.45089403e-03, 7.86803812e-02, 3.75733346e-01,
          8.13030601e-02, 9.04134195e-03, 7.73000270e-02, 8.38567242e-02,
          5.23845702e-02, 9.56587791e-02, 1. ]
      - [ 3.85645032e-02, 5.06475661e-03, 2.22125743e-02, 1.78713556e-02,
          4.34122002e-03, 5.06475684e-04, 1.88843068e-02, 6.46841750e-02,
          4.98516746e-02, 2.02590274e-03, 3.83474422e-03, 4.99240309e-03,
          3.40062231e-02, 7.95890344e-04, 1.38340205e-01, 5.51913738e-01,
          4.55828104e-03, 1.23001228e-03, 1.80884160e-03, 1.23001228e-03,
          2.17060995e-04, 1.44707330e-04, 8.68243980e-04, 1.51942694e-03,
          3.99392247e-02, 2.02590274e-03, 3.03885387e-03, 3.97945149e-03,
          8.95014852e-02, 1.44707330e-03, 3.68714273e-01, 1.95210189e-01,
          2.37320028e-02, 1.01295137e-03, 1.20107085e-02, 3.18356138e-03,
          1.95354898e-03, 2.17060995e-04, 3.25591490e-03, 3.83474422e-03,
          2.82179285e-03, 7.23536650e-05, 7.23536650e-04, 3.61768325e-04,
          3.03885387e-03, 1.44707330e-04, 6.22241525e-03, 3.11120762e-03,
          2.02590264e-02, 1.51942694e-03, 3.11120762e-03, 1.80884160e-03,
          7.23536650e-04, 0., 1.59178069e-03, 1.59178069e-03,
          1.21120036e-01, 4.26886603e-03, 4.55828104e-03, 4.41357354e-03,
          3.92156869e-01, 3.25591490e-03, 6.18696213e-01, 1.56211570e-01,
          4.12415899e-03, 1.44707330e-04, 1.37471966e-03, 5.78829320e-04,
          1.23001228e-03, 0., 1.01295137e-03, 1.51942694e-03,
          1.01295137e-03, 1.44707330e-04, 1.44707330e-04, 7.23536650e-05,
          1.08530500e-03, 7.23536650e-05, 5.06475661e-03, 5.28181763e-03,
          2.89414660e-04, 7.23536650e-05, 2.89414660e-04, 0.,
          7.23536650e-05, 0., 7.23536650e-05, 7.23536650e-05,
          6.51182956e-04, 7.23536650e-05, 1.44707330e-04, 7.23536650e-05,
          1.23001228e-03, 7.23536650e-05, 2.74943933e-03, 3.83474422e-03,
          1.64966360e-02, 5.78829320e-04, 3.47297592e-03, 1.37471966e-03,
          1.23001228e-03, 0., 1.23001228e-03, 1.73648796e-03,
          3.76239046e-03, 0., 1.44707330e-04, 1.44707330e-04,
          2.53237830e-03, 0., 4.34122002e-03, 3.83474422e-03,
          6.14282601e-02, 8.68243980e-04, 3.76239046e-03, 1.44707330e-03,
          1.01295137e-03, 7.23536650e-05, 1.37471966e-03, 6.43947627e-03,
          3.93676281e-01, 3.90709797e-03, 3.83474422e-03, 2.82179285e-03,
          1.56356275e-01, 3.03885387e-03, 1.29513055e-01, 1.01584546e-01,
          4.34121974e-02, 3.18356119e-02, 2.96650035e-03, 1.27270103e-01,
          1.08530500e-03, 8.68243980e-04, 3.54532967e-03, 4.23847765e-01,
          2.34425869e-02, 5.35417115e-03, 7.95890344e-04, 8.68244004e-03,
          4.48592706e-03, 1.73648796e-03, 7.74184195e-03, 3.90058607e-01,
          2.09825626e-03, 2.17061001e-03, 7.23536650e-05, 4.55828104e-03,
          7.23536650e-05, 0., 7.23536650e-05, 3.90709797e-03,
          6.94595184e-03, 1.30236591e-03, 7.23536650e-05, 5.13711013e-03,
          2.89414660e-03, 1.59178069e-03, 4.55828104e-03, 9.77497995e-02,
          3.76239046e-03, 2.96650035e-03, 4.34121990e-04, 6.22241525e-03,
          2.89414660e-04, 0., 2.89414660e-04, 2.89414660e-03,
          6.51182956e-04, 2.89414660e-04, 6.51182956e-04, 7.95890344e-04,
          3.61768325e-04, 1.44707330e-04, 5.06475684e-04, 1.08530493e-02,
          4.70298808e-03, 3.40062217e-03, 4.34121990e-04, 4.77534207e-03,
          1.44707330e-04, 0., 7.23536650e-05, 2.67708558e-03,
          7.01830536e-03, 4.84769559e-03, 5.78829320e-04, 7.09065935e-03,
          5.93300071e-03, 3.69003695e-03, 1.65689886e-02, 1.17719412e-01,
          2.83626374e-02, 7.53201619e-02, 2.60473182e-03, 3.76817882e-01,
          1.08530500e-03, 7.95890344e-04, 3.25591490e-03, 1.68439329e-01,
          3.69003695e-03, 3.69003695e-03, 2.17060995e-04, 3.90709797e-03,
          2.24296353e-03, 7.23536650e-04, 3.40062217e-03, 9.62303728e-02,
          7.95890344e-04, 1.15765864e-03, 0., 3.03885387e-03, 0.,
          7.23536650e-05, 7.23536650e-05, 2.46002455e-03, 1.80884160e-03,
          1.66413432e-03, 2.89414660e-04, 2.02590274e-03, 1.66413432e-03,
          1.88119523e-03, 2.60473182e-03, 6.10664934e-02, 1.26908332e-01,
          2.61196733e-01, 5.42652467e-03, 4.67477024e-01, 4.41357354e-03,
          2.67708558e-03, 3.40062217e-03, 1.25750676e-01, 7.16301287e-03,
          3.32826865e-03, 6.51182956e-04, 8.68244004e-03, 3.83474422e-03,
          2.17061001e-03, 6.94595184e-03, 9.21785682e-02, 4.67187613e-01,
          1.56790391e-01, 2.82179285e-03, 9.91968736e-02, 4.70298808e-03,
          3.03885387e-03, 4.12415899e-03, 9.32638720e-02, 3.59163582e-01,
          8.27002376e-02, 9.04420856e-03, 7.55372271e-02, 8.34961310e-02,
          5.48440777e-02, 9.30468142e-02, 1. ]
      - [ 3.63599434e-02, 4.51960182e-03, 2.24964451e-02, 1.94495227e-02,
          4.26569162e-03, 2.53910228e-04, 2.03635991e-02, 6.47471026e-02,
          3.96099947e-02, 2.99614063e-03, 4.72273026e-03, 4.11334541e-03,
          2.57972777e-02, 8.63294757e-04, 1.25837907e-01, 4.54245389e-01,
          5.94149902e-03, 9.14076809e-04, 1.37111521e-03, 1.52346131e-03,
          3.55474302e-04, 0., 9.14076809e-04, 1.01564091e-03,
          2.92504579e-02, 2.03128182e-03, 3.85943544e-03, 4.51960182e-03,
          6.12431467e-02, 1.77737151e-03, 3.07942301e-01, 2.01960191e-01,
          2.24456638e-02, 1.21876900e-03, 9.54702403e-03, 2.64066621e-03,
          1.82815362e-03, 2.53910228e-04, 3.70708923e-03, 4.06256365e-03,
          3.30083282e-03, 5.07820441e-05, 5.07820456e-04, 2.03128177e-04,
          3.09770461e-03, 5.07820441e-05, 7.05870427e-03, 4.11334541e-03,
          2.00081263e-02, 1.67580741e-03, 3.09770461e-03, 1.62502541e-03,
          6.09384500e-04, 5.07820441e-05, 1.52346131e-03, 1.98049983e-03,
          1.21318303e-01, 6.14462746e-03, 5.78915281e-03, 5.38289687e-03,
          3.36380273e-01, 4.11334541e-03, 3.44860852e-01, 1.26244158e-01,
          3.91021743e-03, 4.06256353e-04, 1.62502541e-03, 6.09384500e-04,
          6.09384500e-04, 0., 1.42189721e-03, 1.26955111e-03,
          1.82815362e-03, 2.53910228e-04, 1.01564088e-04, 1.01564088e-04,
          1.62502541e-03, 5.07820441e-05, 5.02742222e-03, 4.72273026e-03,
          2.03128177e-04, 1.01564088e-04, 1.01564088e-04, 5.07820441e-05,
          1.01564088e-04, 5.07820441e-05, 5.07820441e-05, 2.03128177e-04,
          9.14076809e-04, 5.07820441e-05, 5.07820441e-05, 5.07820441e-05,
          1.16798701e-03, 2.03128177e-04, 4.01178142e-03, 3.40239704e-03,
          1.81291904e-02, 7.61730655e-04, 3.40239704e-03, 9.14076809e-04,
          1.37111521e-03, 5.07820441e-05, 1.37111521e-03, 1.26955111e-03,
          4.46882006e-03, 1.01564088e-04, 4.57038404e-04, 2.03128177e-04,
          3.75787122e-03, 0., 5.58602484e-03, 4.21490986e-03,
          6.54072762e-02, 1.16798701e-03, 3.75787122e-03, 1.01564091e-03,
          1.16798701e-03, 1.52346125e-04, 1.77737151e-03, 3.40239704e-03,
          4.21948016e-01, 4.87507600e-03, 3.65630724e-03, 3.60552524e-03,
          1.99370310e-01, 3.96099966e-03, 1.36552915e-01, 8.51107091e-02,
          3.66646349e-02, 2.85395086e-02, 2.99614063e-03, 1.13142394e-01,
          1.92971772e-03, 4.06256353e-04, 4.62116580e-03, 3.83912265e-01,
          2.35120859e-02, 5.28133241e-03, 7.10948603e-04, 8.32825527e-03,
          5.33211464e-03, 1.47267932e-03, 9.90249868e-03, 3.84166151e-01,
          2.13284581e-03, 1.67580741e-03, 1.52346125e-04, 5.83993504e-03,
          3.04692250e-04, 1.01564088e-04, 1.52346125e-04, 4.11334541e-03,
          6.80479407e-03, 2.64066621e-03, 1.01564088e-04, 5.43367863e-03,
          3.19926883e-03, 1.26955111e-03, 4.41803783e-03, 1.12888485e-01,
          3.55474302e-03, 2.79301242e-03, 5.07820456e-04, 4.62116580e-03,
          2.03128177e-04, 1.01564088e-04, 4.06256353e-04, 3.96099966e-03,
          1.01564091e-03, 3.04692250e-04, 3.55474302e-04, 8.63294757e-04,
          2.53910228e-04, 4.57038404e-04, 1.06642290e-03, 9.90249868e-03,
          4.36725561e-03, 5.07820444e-03, 1.52346125e-04, 5.07820444e-03,
          0., 1.01564088e-04, 2.53910228e-04, 3.25005082e-03,
          1.04611013e-02, 6.14462746e-03, 6.09384500e-04, 8.12512729e-03,
          4.57038404e-03, 2.53910222e-03, 1.21876905e-02, 1.17001832e-01,
          2.31058300e-02, 5.33719286e-02, 3.55474302e-03, 2.87172467e-01,
          1.52346131e-03, 1.47267932e-03, 3.09770461e-03, 1.92463949e-01,
          5.07820444e-03, 2.58988421e-03, 4.06256353e-04, 4.31647385e-03,
          2.28519202e-03, 1.47267932e-03, 5.53524261e-03, 1.10501729e-01,
          8.12512706e-04, 1.72658951e-03, 1.01564088e-04, 4.41803783e-03,
          1.01564088e-04, 3.55474302e-04, 1.01564088e-04, 3.75787122e-03,
          1.72658951e-03, 1.87893561e-03, 4.06256353e-04, 2.84379441e-03,
          1.06642290e-03, 2.94535863e-03, 3.35161481e-03, 6.18525296e-02,
          1.14970550e-01, 2.55738378e-01, 5.43367863e-03, 2.61781424e-01,
          4.57038404e-03, 3.70708923e-03, 4.77351202e-03, 1.19388588e-01,
          8.32825527e-03, 3.75787122e-03, 8.12512706e-04, 1.18829980e-02,
          5.73837105e-03, 2.58988421e-03, 8.58216546e-03, 1.07048549e-01,
          4.69632357e-01, 1.86116189e-01, 3.14848684e-03, 1.12329878e-01,
          5.33211464e-03, 2.99614063e-03, 3.70708923e-03, 8.22161287e-02,
          4.14330691e-01, 1.04001626e-01, 1.03087546e-02, 9.65874493e-02,
          1.17814340e-01, 6.08876720e-02, 1.14462726e-01, 1. ]
      - [ 3.63084786e-02, 4.69261035e-03, 2.06190441e-02, 1.99080426e-02,
          4.12380882e-03, 4.74001019e-04, 1.80594400e-02, 6.00559302e-02,
          4.00530882e-02, 1.46940316e-03, 2.89140618e-03, 3.79200815e-03,
          2.56908555e-02, 9.00601968e-04, 1.12053841e-01, 4.22571927e-01,
          4.31340933e-03, 6.63601444e-04, 1.56420341e-03, 1.94340420e-03,
          3.79200821e-04, 9.48002053e-05, 6.63601444e-04, 1.18500262e-03,
          2.66388580e-02, 1.32720289e-03, 3.64980800e-03, 3.98160843e-03,
          5.67853227e-02, 1.18500262e-03, 2.64065981e-01, 1.77181587e-01,
          2.28468496e-02, 1.32720289e-03, 1.16604250e-02, 2.84400606e-03,
          1.51680328e-03, 1.89600411e-04, 3.55500774e-03, 4.07640869e-03,
          3.22320708e-03, 2.84400623e-04, 5.21401118e-04, 4.74001019e-04,
          3.22320708e-03, 9.48002053e-05, 6.11461326e-03, 3.41280736e-03,
          1.84860397e-02, 1.13760249e-03, 4.31340933e-03, 1.65900355e-03,
          6.63601444e-04, 0., 1.89600408e-03, 1.56420341e-03,
          1.13807648e-01, 5.30881155e-03, 6.63601421e-03, 5.21401130e-03,
          2.86201805e-01, 4.55040997e-03, 3.16727489e-01, 1.15561448e-01,
          4.12380882e-03, 1.42200312e-04, 1.56420341e-03, 5.68801246e-04,
          8.05801770e-04, 0., 1.32720289e-03, 1.09020236e-03,
          1.80120394e-03, 2.37000510e-04, 1.89600411e-04, 1.42200312e-04,
          1.04280224e-03, 0., 4.64521023e-03, 3.88680841e-03,
          4.26600920e-04, 0., 5.68801246e-04, 0., 4.74001026e-05,
          4.74001026e-05, 4.74001026e-05, 9.48002053e-05, 8.05801770e-04,
          4.74001026e-05, 9.48002053e-05, 9.48002053e-05, 1.32720289e-03,
          1.42200312e-04, 3.36540723e-03, 3.31800710e-03, 1.63056348e-02,
          5.21401118e-04, 2.84400606e-03, 1.32720289e-03, 1.37460302e-03,
          4.74001026e-05, 1.80120394e-03, 1.13760249e-03, 3.64980800e-03,
          9.48002053e-05, 2.37000510e-04, 2.37000510e-04, 4.07640869e-03,
          0., 4.45560971e-03, 3.46020749e-03, 5.89657277e-02,
          1.23240263e-03, 3.79200815e-03, 1.27980276e-03, 1.46940316e-03,
          1.89600411e-04, 1.27980276e-03, 4.78741014e-03, 3.85599822e-01,
          3.93420830e-03, 4.17120894e-03, 2.51220539e-03, 1.85429201e-01,
          2.74920603e-03, 1.23998672e-01, 8.63155872e-02, 3.26112695e-02,
          2.44110525e-02, 3.31800710e-03, 1.12433046e-01, 1.75380381e-03,
          7.11001514e-04, 2.89140618e-03, 3.51898372e-01, 2.37474516e-02,
          3.79200815e-03, 7.11001514e-04, 9.00601968e-03, 4.36080946e-03,
          1.84860395e-03, 8.72161891e-03, 3.76214623e-01, 1.42200303e-03,
          1.61160354e-03, 2.37000510e-04, 3.83940828e-03, 1.89600411e-04,
          0., 4.74001026e-05, 4.26600920e-03, 6.49381429e-03,
          2.08560447e-03, 3.79200821e-04, 5.45101194e-03, 3.41280736e-03,
          1.56420341e-03, 5.21401130e-03, 1.02621220e-01, 3.98160843e-03,
          3.22320708e-03, 6.16201316e-04, 5.83021250e-03, 2.37000510e-04,
          4.74001026e-05, 2.37000510e-04, 3.64980800e-03, 1.09020236e-03,
          4.26600920e-04, 1.42200312e-04, 1.09020236e-03, 1.89600411e-04,
          4.26600920e-04, 1.09020236e-03, 9.43262037e-03, 4.31340933e-03,
          3.98160843e-03, 3.31800722e-04, 4.74001048e-03, 4.74001026e-05,
          1.42200312e-04, 2.37000510e-04, 3.08100670e-03, 8.76901858e-03,
          5.02441078e-03, 5.21401118e-04, 8.20021797e-03, 4.55040997e-03,
          3.08100670e-03, 1.19922264e-02, 1.04706824e-01, 2.50272546e-02,
          4.93435077e-02, 3.08100670e-03, 2.64018565e-01, 1.75380381e-03,
          8.53201840e-04, 3.22320708e-03, 1.78034782e-01, 4.74001048e-03,
          3.46020749e-03, 4.74001019e-04, 4.36080946e-03, 2.46480526e-03,
          1.89600408e-03, 4.17120894e-03, 1.08356632e-01, 8.53201840e-04,
          1.18500262e-03, 4.74001026e-05, 3.64980800e-03, 9.48002053e-05,
          4.74001026e-05, 0., 2.93880631e-03, 2.13300460e-03,
          7.11001514e-04, 3.79200821e-04, 2.93880631e-03, 9.95402108e-04,
          2.84400606e-03, 2.93880631e-03, 5.94871305e-02, 1.02289423e-01,
          2.38943920e-01, 4.83481027e-03, 2.57003367e-01, 4.26600920e-03,
          3.36540723e-03, 5.35621168e-03, 1.15324453e-01, 9.29042045e-03,
          3.60240787e-03, 8.05801770e-04, 1.03806229e-02, 4.45560971e-03,
          2.22780486e-03, 7.82101694e-03, 1.04422428e-01, 3.95838261e-01,
          1.70071572e-01, 3.31800710e-03, 1.10868841e-01, 4.17120894e-03,
          3.08100670e-03, 3.31800710e-03, 7.94425756e-02, 3.95743459e-01,
          9.56060067e-02, 9.66962054e-03, 9.41366032e-02, 1.04943827e-01,
          5.83495274e-02, 1.11864239e-01, 9.99999940e-01 ]
      - [ 3.53485756e-02, 4.44195094e-03, 2.07602754e-02, 1.50558753e-02,
          4.02113423e-03, 2.80544278e-04, 1.84691641e-02, 5.75583316e-02,
          3.78267169e-02, 1.54299347e-03, 4.11464926e-03, 4.06789174e-03,
          2.70257648e-02, 7.48118036e-04, 1.06232762e-01, 3.65408897e-01,
          4.20816382e-03, 8.88390176e-04, 1.44947867e-03, 1.49623607e-03,
          4.67573758e-04, 0., 1.02866231e-03, 1.21569179e-03,
          2.47346517e-02, 1.21569179e-03, 3.13274423e-03, 3.60031798e-03,
          5.20409606e-02, 1.12217711e-03, 2.68293828e-01, 1.62107825e-01,
          2.02927012e-02, 1.30920659e-03, 1.03333807e-02, 2.85220006e-03,
          1.40272127e-03, 2.33786879e-04, 2.99247215e-03, 3.60031798e-03,
          2.85220006e-03, 3.27301648e-04, 7.01360637e-04, 1.40272139e-04,
          2.94571486e-03, 9.35147546e-05, 6.87333429e-03, 3.92761966e-03,
          1.97783709e-02, 1.58975087e-03, 2.94571486e-03, 2.10408191e-03,
          7.94875436e-04, 0., 1.77678035e-03, 1.68326555e-03,
          1.08570628e-01, 4.25492134e-03, 7.43442308e-03, 4.95628221e-03,
          2.78860986e-01, 3.64707550e-03, 3.10889810e-01, 1.14742607e-01,
          4.02113423e-03, 2.80544278e-04, 1.40272127e-03, 4.67573758e-04,
          4.67573758e-04, 0., 1.40272127e-03, 8.41632776e-04,
          2.01056711e-03, 1.40272139e-04, 1.40272139e-04, 9.35147546e-05,
          1.68326555e-03, 9.35147546e-05, 4.86276718e-03, 3.60031798e-03,
          2.80544278e-04, 4.67573773e-05, 2.80544278e-04, 9.35147546e-05,
          9.35147546e-05, 0., 0., 1.40272139e-04, 8.88390176e-04,
          4.67573773e-05, 4.67573773e-05, 4.67573773e-05, 1.16893440e-03,
          9.35147546e-05, 3.55356070e-03, 3.69383278e-03, 1.94510687e-02,
          7.48118036e-04, 2.80544255e-03, 1.26244919e-03, 1.77678035e-03,
          0., 1.35596399e-03, 1.30920659e-03, 3.50680319e-03,
          4.67573773e-05, 5.61088556e-04, 1.40272139e-04, 3.64707550e-03,
          1.40272139e-04, 5.28358342e-03, 3.27301631e-03, 5.92415966e-02,
          1.26244919e-03, 3.50680319e-03, 1.26244919e-03, 1.35596399e-03,
          2.80544278e-04, 1.73002295e-03, 4.86276718e-03, 3.96128505e-01,
          3.97437718e-03, 3.92761966e-03, 3.41328862e-03, 1.82260260e-01,
          3.46004590e-03, 1.21054851e-01, 8.33216459e-02, 3.90891656e-02,
          2.41735633e-02, 3.97437718e-03, 1.06513306e-01, 1.73002295e-03,
          4.67573758e-04, 4.30167885e-03, 3.61621559e-01, 2.44541075e-02,
          5.04979677e-03, 8.88390176e-04, 7.85523932e-03, 5.47061302e-03,
          2.10408191e-03, 8.97741690e-03, 3.75040919e-01, 1.87029503e-03,
          1.73002295e-03, 3.27301648e-04, 5.00303926e-03, 1.87029509e-04,
          1.40272139e-04, 4.67573773e-05, 3.64707550e-03, 5.04979677e-03,
          1.91705243e-03, 3.74059018e-04, 4.20816382e-03, 2.89895735e-03,
          1.07541971e-03, 4.16140677e-03, 9.65539813e-02, 3.69383278e-03,
          2.24435423e-03, 6.54603296e-04, 5.19006886e-03, 2.33786879e-04,
          0., 1.40272139e-04, 3.83410486e-03, 1.02866231e-03,
          4.20816388e-04, 2.33786879e-04, 9.35147516e-04, 3.27301648e-04,
          3.74059018e-04, 7.94875436e-04, 9.63201933e-03, 4.16140677e-03,
          4.06789174e-03, 4.67573758e-04, 4.25492134e-03, 1.40272139e-04,
          1.40272139e-04, 1.40272139e-04, 3.46004590e-03, 7.76172476e-03,
          5.47061302e-03, 5.14331157e-04, 8.22929852e-03, 4.62898053e-03,
          2.33786879e-03, 1.03801377e-02, 1.05250858e-01, 2.56230421e-02,
          5.09187840e-02, 2.24435423e-03, 2.27194101e-01, 1.35596399e-03,
          1.02866231e-03, 3.74059007e-03, 1.66783571e-01, 5.33034094e-03,
          3.08598694e-03, 2.33786879e-04, 4.44195094e-03, 2.01056711e-03,
          1.58975087e-03, 4.53546550e-03, 9.72553417e-02, 7.01360637e-04,
          1.21569179e-03, 1.40272139e-04, 2.71192798e-03, 9.35147546e-05,
          9.35147546e-05, 4.67573773e-05, 3.08598694e-03, 2.05732463e-03,
          1.40272127e-03, 4.67573758e-04, 2.57165567e-03, 8.88390176e-04,
          3.22625902e-03, 2.94571486e-03, 6.03170171e-02, 1.11890405e-01,
          2.62963504e-01, 5.98494429e-03, 2.76149064e-01, 4.95628221e-03,
          4.06789174e-03, 4.95628221e-03, 1.08243331e-01, 8.04226846e-03,
          4.11464926e-03, 9.81904916e-04, 1.13152852e-02, 4.53546550e-03,
          2.38462631e-03, 8.22929852e-03, 1.01697296e-01, 3.60733151e-01,
          1.82494044e-01, 4.06789174e-03, 1.13760702e-01, 4.02113423e-03,
          2.89895735e-03, 2.85220006e-03, 8.16383809e-02, 3.93884152e-01,
          1.02725960e-01, 9.86580644e-03, 1.07775755e-01, 1.03427321e-01,
          6.10651337e-02, 1.08710900e-01, 1. ]
      - [ 3.59846726e-02, 4.62660100e-03, 1.95345357e-02, 1.59360692e-02,
          4.01906716e-03, 2.33666709e-04, 1.76652037e-02, 5.64538762e-02,
          3.30404714e-02, 1.58893364e-03, 2.80400040e-03, 3.45826731e-03,
          2.47219373e-02, 7.47733458e-04, 1.14449956e-01, 3.63024592e-01,
          4.39293403e-03, 5.60800079e-04, 1.40200020e-03, 1.44873362e-03,
          3.73866729e-04, 4.67333412e-05, 1.02813356e-03, 1.12160016e-03,
          2.40676701e-02, 1.44873362e-03, 2.80400040e-03, 4.39293403e-03,
          5.47714755e-02, 1.21506688e-03, 2.81568378e-01, 1.76137969e-01,
          2.06561368e-02, 1.26180018e-03, 9.90746822e-03, 3.13113397e-03,
          1.30853360e-03, 3.73866729e-04, 2.75726710e-03, 2.33666715e-03,
          3.87886725e-03, 2.80400040e-04, 5.60800079e-04, 1.86933365e-04,
          3.22460057e-03, 4.67333412e-05, 5.79493446e-03, 3.45826731e-03,
          1.71978697e-02, 1.12160016e-03, 2.75726710e-03, 1.63566694e-03,
          9.34666838e-04, 9.34666823e-05, 1.54220022e-03, 1.63566694e-03,
          1.14309750e-01, 4.48640063e-03, 4.72006761e-03, 5.04720071e-03,
          2.62267500e-01, 2.89746723e-03, 2.63762981e-01, 1.12814285e-01,
          4.48640063e-03, 1.40200020e-04, 1.26180018e-03, 5.14066778e-04,
          5.14066778e-04, 0., 1.86933368e-03, 1.21506688e-03,
          2.19646702e-03, 9.34666823e-05, 2.80400040e-04, 9.34666823e-05,
          1.35526690e-03, 4.67333412e-05, 5.04720071e-03, 5.23413438e-03,
          5.14066778e-04, 0., 1.86933365e-04, 9.34666823e-05,
          4.67333412e-05, 4.67333412e-05, 9.34666823e-05, 4.67333412e-05,
          7.01000099e-04, 9.34666823e-05, 0., 4.67333412e-05,
          1.72913366e-03, 2.80400040e-04, 4.15926753e-03, 2.85073370e-03,
          1.66838020e-02, 9.81400139e-04, 3.64520052e-03, 1.16833358e-03,
          1.26180018e-03, 4.67333412e-05, 1.40200020e-03, 1.16833358e-03,
          4.20600083e-03, 0., 4.67333412e-05, 4.67333419e-04,
          4.11253422e-03, 9.34666823e-05, 4.01906716e-03, 2.80400040e-03,
          5.85101433e-02, 1.26180018e-03, 2.94420053e-03, 1.82260026e-03,
